{"learner":{"attributes":{"scikit_learn":"{\"_estimator_type\": \"classifier\"}"},"feature_names":[],"feature_types":[],"gradient_booster":{"model":{"gbtree_model_param":{"num_parallel_tree":"1","num_trees":"200"},"iteration_indptr":[0,1,2,3,4,5,6,7,8,9,10,11,12,13,14,15,16,17,18,19,20,21,22,23,24,25,26,27,28,29,30,31,32,33,34,35,36,37,38,39,40,41,42,43,44,45,46,47,48,49,50,51,52,53,54,55,56,57,58,59,60,61,62,63,64,65,66,67,68,69,70,71,72,73,74,75,76,77,78,79,80,81,82,83,84,85,86,87,88,89,90,91,92,93,94,95,96,97,98,99,100,101,102,103,104,105,106,107,108,109,110,111,112,113,114,115,116,117,118,119,120,121,122,123,124,125,126,127,128,129,130,131,132,133,134,135,136,137,138,139,140,141,142,143,144,145,146,147,148,149,150,151,152,153,154,155,156,157,158,159,160,161,162,163,164,165,166,167,168,169,170,171,172,173,174,175,176,177,178,179,180,181,182,183,184,185,186,187,188,189,190,191,192,193,194,195,196,197,198,199,200],"tree_info":[0,0,0,0,0,0,0,0,0,0,0,0,0,0,0,0,0,0,0,0,0,0,0,0,0,0,0,0,0,0,0,0,0,0,0,0,0,0,0,0,0,0,0,0,0,0,0,0,0,0,0,0,0,0,0,0,0,0,0,0,0,0,0,0,0,0,0,0,0,0,0,0,0,0,0,0,0,0,0,0,0,0,0,0,0,0,0,0,0,0,0,0,0,0,0,0,0,0,0,0,0,0,0,0,0,0,0,0,0,0,0,0,0,0,0,0,0,0,0,0,0,0,0,0,0,0,0,0,0,0,0,0,0,0,0,0,0,0,0,0,0,0,0,0,0,0,0,0,0,0,0,0,0,0,0,0,0,0,0,0,0,0,0,0,0,0,0,0,0,0,0,0,0,0,0,0,0,0,0,0,0,0,0,0,0,0,0,0,0,0,0,0,0,0,0,0,0,0,0,0],"trees":[{"base_weights":[8.20064E-3,-6.464355E-1,1.9997188E-1,-1.9996528E-1,-1.5543023E-1,1.999464E-1,-8.1741863E-1,-1.9996496E-1,2.305144E-1,1.9994432E-1,-1.9992982E-1],"categories":[],"categories_nodes":[],"categories_segments":[],"categories_sizes":[],"default_left":[0,0,0,0,0,0,0,0,0,0,0],"id":0,"left_children":[1,3,-1,-1,5,-1,7,-1,9,-1,-1],"loss_changes":[3.7479156E4,1.4375374E4,0E0,0E0,2.2649906E4,0E0,1.5048404E4,0E0,2.5404713E4,0E0,0E0],"parents":[2147483647,0,0,1,1,4,4,6,6,8,8],"right_children":[2,4,-1,-1,6,-1,8,-1,10,-1,-1],"split_conditions":[2.6517875E0,-3.0101708E-1,1.9997188E-1,-1.9996528E-1,-2.7469975E-1,1.999464E-1,-2.027657E-1,-1.9996496E-1,6.7425564E-2,1.9994432E-1,-1.9992982E-1],"split_indices":[4,4,0,0,4,0,4,0,4,0,0],"split_type":[0,0,0,0,0,0,0,0,0,0,0],"sum_hessian":[2.8745871E4,2.1634895E4,7.1109766E3,5.75925E3,1.5875645E4,3.7304202E3,1.2145225E4,5.7065E3,6.4387246E3,3.5904746E3,2.84825E3],"tree_param":{"num_deleted":"0","num_feature":"385","num_nodes":"11","size_leaf_vector":"1"}},{"base_weights":[7.1018776E-3,-5.757942E-1,1.8184923E-1,-1.8184412E-1,-1.2875473E-1,1.8182942E-1,-7.3728704E-1,-1.8184392E-1,2.1748129E-1,1.8182714E-1,-1.8181461E-1],"categories":[],"categories_nodes":[],"categories_segments":[],"categories_sizes":[],"default_left":[0,0,0,0,0,0,0,0,0,0,0],"id":1,"left_children":[1,3,-1,-1,5,-1,7,-1,9,-1,-1],"loss_changes":[3.0162715E4,1.2005729E4,0E0,0E0,1.883501E4,0E0,1.2502178E4,0E0,2.0964021E4,0E0,0E0],"parents":[2147483647,0,0,1,1,4,4,6,6,8,8],"right_children":[2,4,-1,-1,6,-1,8,-1,10,-1,-1],"split_conditions":[2.6517875E0,-3.0101708E-1,1.8184923E-1,-1.8184412E-1,-2.7469975E-1,1.8182942E-1,-2.027657E-1,-1.8184392E-1,6.7425564E-2,1.8182714E-1,-1.8181461E-1],"split_indices":[4,4,0,0,4,0,4,0,4,0,0],"split_type":[0,0,0,0,0,0,0,0,0,0,0],"sum_hessian":[2.856518E4,2.1611418E4,6.9537607E3,5.71691E3,1.5894508E4,3.7843103E3,1.2110198E4,5.678792E3,6.431406E3,3.6002915E3,2.8311143E3],"tree_param":{"num_deleted":"0","num_feature":"385","num_nodes":"11","size_leaf_vector":"1"}},{"base_weights":[-6.392147E-3,-5.573012E-1,1.6823697E-1,-1.6823219E-1,-1.4928706E-1,1.682177E-1,-7.069952E-1,-1.6823223E-1,1.6894425E-1,1.6821562E-1,-1.6820644E-1],"categories":[],"categories_nodes":[],"categories_segments":[],"categories_sizes":[],"default_left":[0,0,0,0,0,0,0,0,0,0,0],"id":2,"left_children":[1,3,-1,-1,5,-1,7,-1,9,-1,-1],"loss_changes":[2.571916E4,9.567902E3,0E0,0E0,1.5626815E4,0E0,1.0019493E4,0E0,1.7311451E4,0E0,0E0],"parents":[2147483647,0,0,1,1,4,4,6,6,8,8],"right_children":[2,4,-1,-1,6,-1,8,-1,10,-1,-1],"split_conditions":[2.6517875E0,-3.0101708E-1,1.6823697E-1,-1.6823219E-1,-2.7469975E-1,1.682177E-1,-2.027657E-1,-1.6823223E-1,6.7425564E-2,1.6821562E-1,-1.6820644E-1],"split_indices":[4,4,0,0,4,0,4,0,4,0,0],"split_type":[0,0,0,0,0,0,0,0,0,0,0],"sum_hessian":[2.7642473E4,2.0843545E4,6.7989263E3,5.546637E3,1.5296908E4,3.57031E3,1.1726599E4,5.548085E3,6.1785137E3,3.399495E3,2.7790186E3],"tree_param":{"num_deleted":"0","num_feature":"385","num_nodes":"11","size_leaf_vector":"1"}},{"base_weights":[-1.3588904E-4,-5.108817E-1,1.5766743E-1,-1.5766315E-1,-1.2398971E-1,1.5764993E-1,-6.4709884E-1,-1.5766297E-1,1.8147159E-1,1.5764835E-1,-1.5763813E-1],"categories":[],"categories_nodes":[],"categories_segments":[],"categories_sizes":[],"default_left":[0,0,0,0,0,0,0,0,0,0,0],"id":3,"left_children":[1,3,-1,-1,5,-1,7,-1,9,-1,-1],"loss_changes":[2.1451553E4,8.29565E3,0E0,0E0,1.3132407E4,0E0,8.695543E3,0E0,1.4642273E4,0E0,0E0],"parents":[2147483647,0,0,1,1,4,4,6,6,8,8],"right_children":[2,4,-1,-1,6,-1,8,-1,10,-1,-1],"split_conditions":[2.6517875E0,-3.0101708E-1,1.5766743E-1,-1.5766315E-1,-2.7469975E-1,1.5764993E-1,-2.027657E-1,-1.5766297E-1,6.7425564E-2,1.5764835E-1,-1.5763813E-1],"split_indices":[4,4,0,0,4,0,4,0,4,0,0],"split_type":[0,0,0,0,0,0,0,0,0,0,0],"sum_hessian":[2.6634338E4,2.0118436E4,6.5159023E3,5.3574614E3,1.4760975E4,3.4720964E3,1.1288878E4,5.319877E3,5.969001E3,3.328023E3,2.6409778E3],"tree_param":{"num_deleted":"0","num_feature":"385","num_nodes":"11","size_leaf_vector":"1"}},{"base_weights":[7.726852E-4,-4.8304382E-1,1.4925241E-1,-1.4924815E-1,-1.1786711E-1,1.4923607E-1,-6.220435E-1,-1.4924811E-1,1.6196167E-1,1.4923318E-1,-1.4922386E-1],"categories":[],"categories_nodes":[],"categories_segments":[],"categories_sizes":[],"default_left":[0,0,0,0,0,0,0,0,0,0,0],"id":4,"left_children":[1,3,-1,-1,5,-1,7,-1,9,-1,-1],"loss_changes":[1.8363021E4,7.0817944E3,0E0,0E0,1.1455356E4,0E0,7.3333486E3,0E0,1.2445859E4,0E0,0E0],"parents":[2147483647,0,0,1,1,4,4,6,6,8,8],"right_children":[2,4,-1,-1,6,-1,8,-1,10,-1,-1],"split_conditions":[2.6517875E0,-3.0101708E-1,1.4925241E-1,-1.4924815E-1,-2.7469975E-1,1.4923607E-1,-2.027657E-1,-1.4924811E-1,6.7425564E-2,1.4923318E-1,-1.4922386E-1],"split_indices":[4,4,0,0,4,0,4,0,4,0,0],"split_type":[0,0,0,0,0,0,0,0,0,0,0],"sum_hessian":[2.5440926E4,1.9210955E4,6.2299707E3,5.1027153E3,1.4108239E4,3.3636206E3,1.0744618E4,5.0912173E3,5.653401E3,3.1334558E3,2.519945E3],"tree_param":{"num_deleted":"0","num_feature":"385","num_nodes":"11","size_leaf_vector":"1"}},{"base_weights":[4.5825555E-3,-4.533736E-1,1.4242004E-1,-1.007891E0,-4.5094863E-1,9.210837E-2,-1.065939E0,-4.6346918E-1,-3.667244E-1,9.210837E-2,-1.1268252E0,-2.01178E-2,-4.6630093E-1,-3.5192946E-1,-8.281976E-1,7.596262E-2,-1.1900916E0,3.1584728E-1,-4.554532E-1,-9.957568E-1,-4.6409813E-1,4.2031643E-1,-3.5976747E-1,-1.144411E0,-3.7008142E-1,4.953159E-2,-1.2560078E0,5.8234274E-1,-1.550271E-1,-7.228327E-1,1.9466986E-1,7.596307E-2,-1.0656456E0,-9.3856823E-1,-4.616868E-1,7.512886E-1,-1.1118179E-1,3.8788742E-1,-3.6756468E-1,9.210837E-2,-1.260516E0,-9.250218E-1,4.351984E-2,-7.586775E-3,-1.3245411E-1,-9.929544E-2,7.1513675E-2,-1.1878647E-1,2.2813128E-2,-1.3321798E-1,-1.37897795E-2,9.022119E-2,-1.1496665E-1,7.596307E-2,-1.1402809E-1,9.210837E-2,-9.953107E-2,-5.24793E-3,-4.6430133E-2,-9.303238E-2,9.7963646E-2,-1.6998157E-2,1.03105664E-1,4.0612616E-2,-3.7463024E-2,7.596136E-2,-1.3874124E-1,9.2108816E-2,-1.3001667E-1,-1.06187336E-1,3.1567514E-2],"categories":[],"categories_nodes":[],"categories_segments":[],"categories_sizes":[],"default_left":[0,0,0,0,0,0,0,0,0,0,0,0,0,0,0,0,0,0,0,0,0,0,0,0,0,0,0,0,0,0,0,0,0,0,0,0,0,0,0,0,0,0,0,0,0,0,0,0,0,0,0,0,0,0,0,0,0,0,0,0,0,0,0,0,0,0,0,0,0,0,0],"id":5,"left_children":[1,3,-1,5,7,-1,9,11,13,-1,15,17,19,21,23,-1,25,27,29,31,33,35,37,39,41,-1,43,45,47,49,51,-1,53,55,57,59,-1,61,63,-1,65,67,69,-1,-1,-1,-1,-1,-1,-1,-1,-1,-1,-1,-1,-1,-1,-1,-1,-1,-1,-1,-1,-1,-1,-1,-1,-1,-1,-1,-1],"loss_changes":[1.5662121E4,2.4038818E1,0E0,9.771744E0,1.8956543E1,0E0,1.031369E1,1.9809814E1,1.5767548E1,0E0,9.836235E0,1.4950318E1,1.7832764E1,1.39565735E1,1.0054077E1,0E0,8.710106E0,7.3345323E0,7.877166E0,8.675766E0,1.7441162E1,1.2690009E1,1.3308228E1,1.1308422E1,7.1588407E0,0E0,5.5888977E0,8.465947E0,8.840362E0,1.113224E1,1.4123309E1,0E0,9.32341E0,9.150467E0,1.6607666E1,8.52271E0,0E0,8.713409E0,1.2373291E1,0E0,1.1431755E1,1.0401138E1,5.968504E0,0E0,0E0,0E0,0E0,0E0,0E0,0E0,0E0,0E0,0E0,0E0,0E0,0E0,0E0,0E0,0E0,0E0,0E0,0E0,0E0,0E0,0E0,0E0,0E0,0E0,0E0,0E0,0E0],"parents":[2147483647,0,0,1,1,3,3,4,4,6,6,7,7,8,8,10,10,11,11,12,12,13,13,14,14,16,16,17,17,18,18,19,19,20,20,21,21,22,22,23,23,24,24,26,26,27,27,28,28,29,29,30,30,32,32,33,33,34,34,35,35,37,37,38,38,40,40,41,41,42,42],"right_children":[2,4,-1,6,8,-1,10,12,14,-1,16,18,20,22,24,-1,26,28,30,32,34,36,38,40,42,-1,44,46,48,50,52,-1,54,56,58,60,-1,62,64,-1,66,68,70,-1,-1,-1,-1,-1,-1,-1,-1,-1,-1,-1,-1,-1,-1,-1,-1,-1,-1,-1,-1,-1,-1,-1,-1,-1,-1,-1,-1],"split_conditions":[4.352603E0,2.00001E0,1.4242004E-1,2.00001E0,1.3773122E0,9.210837E-2,2.00001E0,2.00001E0,1.5956141E0,9.210837E-2,2.00001E0,-2.7235687E-1,2.00001E0,2.00001E0,-1.4002937E-1,7.596262E-2,2.00001E0,4.934943E-1,7.9792416E-1,-1.7262263E0,2.00001E0,-8.639422E-2,2.00001E0,2.00001E0,6.15116E-1,4.953159E-2,-2.4057494E-1,-1.602318E0,9.722923E-1,2.00001E0,9.427712E-1,7.596307E-2,2.00001E0,2.00001E0,2.00001E0,1.5221592E0,-1.1118179E-1,1.3463199E-1,2.00001E0,9.210837E-2,2.00001E0,2.00001E0,1.5221592E0,-7.586775E-3,-1.3245411E-1,-9.929544E-2,7.1513675E-2,-1.1878647E-1,2.2813128E-2,-1.3321798E-1,-1.37897795E-2,9.022119E-2,-1.1496665E-1,7.596307E-2,-1.1402809E-1,9.210837E-2,-9.953107E-2,-5.24793E-3,-4.6430133E-2,-9.303238E-2,9.7963646E-2,-1.6998157E-2,1.03105664E-1,4.0612616E-2,-3.7463024E-2,7.596136E-2,-1.3874124E-1,9.2108816E-2,-1.3001667E-1,-1.06187336E-1,3.1567514E-2],"split_indices":[10,52,0,262,0,0,343,61,3,0,209,8,125,292,9,0,240,6,0,3,112,5,28,154,6,0,9,5,6,12,0,0,262,374,47,0,0,8,160,0,364,316,0,0,0,0,0,0,0,0,0,0,0,0,0,0,0,0,0,0,0,0,0,0,0,0,0,0,0,0,0],"split_type":[0,0,0,0,0,0,0,0,0,0,0,0,0,0,0,0,0,0,0,0,0,0,0,0,0,0,0,0,0,0,0,0,0,0,0,0,0,0,0,0,0,0,0,0,0,0,0,0,0,0,0,0,0,0,0,0,0,0,0,0,0,0,0,0,0,0,0,0,0,0,0],"sum_hessian":[2.408903E4,1.8214025E4,5.8750034E3,7.75004E1,1.8136525E4,1.829722E0,7.567067E1,1.5785408E4,2.3511172E3,1.829722E0,7.384095E1,1.00235596E2,1.5685173E4,2.2797893E3,7.132796E1,2.0389085E0,7.180204E1,5.672963E1,4.3505966E1,6.311934E1,1.5622054E4,2.237775E1,2.2574114E3,4.131341E1,3.0014544E1,2.4572933E0,6.934475E1,3.6075603E1,2.0654026E1,3.0748169E1,1.2757797E1,2.0389168E0,6.108042E1,7.702901E1,1.5545024E4,1.8821558E1,3.5561936E0,2.2796125E1,2.2346152E3,1.829722E0,3.948369E1,1.2289231E1,1.7725311E1,3.921619E0,6.5423134E1,2.301087E0,3.3774517E1,5.0205345E0,1.5633491E1,1.4434139E1,1.631403E1,8.574043E0,4.1837535E0,2.0389168E0,5.9041504E1,1.829722E0,7.519929E1,9.882423E1,1.54462E4,1.8827019E0,1.6938856E1,1.2601559E1,1.0194568E1,1.9711351E1,2.214904E3,2.0389204E0,3.744477E1,1.8297303E0,1.0459501E1,2.9286227E0,1.4796689E1],"tree_param":{"num_deleted":"0","num_feature":"385","num_nodes":"71","size_leaf_vector":"1"}},{"base_weights":[3.8214647E-3,-4.1804457E-1,1.3678552E-1,-1.4049372E-1,-6.833287E-2,1.4429724E-1,-5.525342E-1,-1.4049529E-1,1.93827E-1,1.443129E-1,-1.4047013E-1],"categories":[],"categories_nodes":[],"categories_segments":[],"categories_sizes":[],"default_left":[0,0,0,0,0,0,0,0,0,0,0],"id":6,"left_children":[1,3,-1,-1,5,-1,7,-1,9,-1,-1],"loss_changes":[1.355826E4,6.2107754E3,0E0,0E0,9.724957E3,0E0,6.4036045E3,0E0,1.072036E4,0E0,0E0],"parents":[2147483647,0,0,1,1,4,4,6,6,8,8],"right_children":[2,4,-1,-1,6,-1,8,-1,10,-1,-1],"split_conditions":[2.6517875E0,-3.0101708E-1,1.3678552E-1,-1.4049372E-1,-2.7469975E-1,1.4429724E-1,-2.027657E-1,-1.4049529E-1,6.7425564E-2,1.443129E-1,-1.4047013E-1],"split_indices":[4,4,0,0,4,0,4,0,4,0,0],"split_type":[0,0,0,0,0,0,0,0,0,0,0],"sum_hessian":[2.355958E4,1.7994855E4,5.564725E3,4.707419E3,1.3287437E4,3.2236606E3,1.0063776E4,4.6976787E3,5.366097E3,3.0121226E3,2.3539746E3],"tree_param":{"num_deleted":"0","num_feature":"385","num_nodes":"11","size_leaf_vector":"1"}},{"base_weights":[1.7472958E-3,-4.0661183E-1,1.3207896E-1,-1.3518368E-1,-6.980646E-2,1.3834552E-1,-5.2692616E-1,-1.351836E-1,1.960567E-1,1.3835262E-1,-1.3515945E-1],"categories":[],"categories_nodes":[],"categories_segments":[],"categories_sizes":[],"default_left":[0,0,0,0,0,0,0,0,0,0,0],"id":7,"left_children":[1,3,-1,-1,5,-1,7,-1,9,-1,-1],"loss_changes":[1.1924847E4,5.381756E3,0E0,0E0,8.281385E3,0E0,5.6559136E3,0E0,9.291193E3,0E0,0E0],"parents":[2147483647,0,0,1,1,4,4,6,6,8,8],"right_children":[2,4,-1,-1,6,-1,8,-1,10,-1,-1],"split_conditions":[2.6517875E0,-3.0101708E-1,1.3207896E-1,-1.3518368E-1,-2.7469975E-1,1.3834552E-1,-2.027657E-1,-1.351836E-1,6.7425564E-2,1.3835262E-1,-1.3515945E-1],"split_indices":[4,4,0,0,4,0,4,0,4,0,0],"split_type":[0,0,0,0,0,0,0,0,0,0,0],"sum_hessian":[2.213669E4,1.6904086E4,5.2326035E3,4.4401226E3,1.2463963E4,2.981916E3,9.482047E3,4.4284263E3,5.0536206E3,2.85962E3,2.1940007E3],"tree_param":{"num_deleted":"0","num_feature":"385","num_nodes":"11","size_leaf_vector":"1"}},{"base_weights":[-6.136643E-3,-3.9267325E-1,1.2810507E-1,-8.921693E-1,-3.9022836E-1,8.302914E-2,-9.411845E-1,-3.9419273E-1,-1.0584946E-1,5.7426848E-2,-9.908464E-1,-4.9982453E-3,-3.9696676E-1,-2.6655525E-2,-7.261024E-1,5.7426374E-2,-1.0433228E0,1.511355E-1,-1.2064624E-1,-8.9018816E-1,-3.9482954E-1,-4.3631893E-1,1.0094335E-1,-1.0292604E0,5.543378E-1,5.7356715E-2,-1.0988508E0,-5.807425E-2,7.3792416E-1,-4.3909517E-1,-1.155672E0,-2.1932947E-3,-3.9730647E-1,4.1852763E-1,-7.5895643E-1,2.1812622E-1,-4.4466254E-1,8.302871E-2,-1.23784125E-1,1.0238725E-1,-6.797307E-2,-1.155669E-1,1.4023127E-2,-3.736054E-2,4.9946778E-2,-8.404125E-2,8.891352E-2,1.8915827E-4,-1.1530508E-1,6.373099E-2,-1.2515612E-1,-6.623941E-2,1.2060932E-2,-2.4020516E-3,-3.9988626E-2,-9.692741E-2,8.916321E-2,-9.566941E-2,2.0449137E-2,-2.2866942E-3,6.294818E-2,3.9191127E-2,-7.886427E-2],"categories":[],"categories_nodes":[],"categories_segments":[],"categories_sizes":[],"default_left":[0,0,0,0,0,0,0,0,0,0,0,0,0,0,0,0,0,0,0,0,0,0,0,0,0,0,0,0,0,0,0,0,0,0,0,0,0,0,0,0,0,0,0,0,0,0,0,0,0,0,0,0,0,0,0,0,0,0,0,0,0,0,0],"id":8,"left_children":[1,3,-1,5,7,-1,9,11,13,-1,15,17,19,21,23,-1,25,27,-1,29,31,33,35,37,39,-1,41,43,45,47,49,51,53,55,57,59,61,-1,-1,-1,-1,-1,-1,-1,-1,-1,-1,-1,-1,-1,-1,-1,-1,-1,-1,-1,-1,-1,-1,-1,-1,-1,-1],"loss_changes":[1.0247336E4,1.8995117E1,0E0,7.2294884E0,1.7730469E1,0E0,6.1931915E0,1.6782715E1,1.0693922E1,0E0,6.5721664E0,2.1012144E1,1.5920654E1,1.0208272E1,1.0141533E1,0E0,6.979805E0,1.2215658E1,0E0,7.3731575E0,1.4948975E1,1.3106369E1,9.628395E0,8.896107E0,3.8075728E0,0E0,4.999832E0,1.3208962E1,6.9845047E0,8.185824E0,7.8143272E0,7.9742327E0,1.4700684E1,9.629406E0,6.6765537E0,1.2246673E1,7.988516E0,0E0,0E0,0E0,0E0,0E0,0E0,0E0,0E0,0E0,0E0,0E0,0E0,0E0,0E0,0E0,0E0,0E0,0E0,0E0,0E0,0E0,0E0,0E0,0E0,0E0,0E0],"parents":[2147483647,0,0,1,1,3,3,4,4,6,6,7,7,8,8,10,10,11,11,12,12,13,13,14,14,16,16,17,17,19,19,20,20,21,21,22,22,23,23,24,24,26,26,27,27,28,28,29,29,30,30,31,31,32,32,33,33,34,34,35,35,36,36],"right_children":[2,4,-1,6,8,-1,10,12,14,-1,16,18,20,22,24,-1,26,28,-1,30,32,34,36,38,40,-1,42,44,46,48,50,52,54,56,58,60,62,-1,-1,-1,-1,-1,-1,-1,-1,-1,-1,-1,-1,-1,-1,-1,-1,-1,-1,-1,-1,-1,-1,-1,-1,-1,-1],"split_conditions":[4.352603E0,2.00001E0,1.2810507E-1,2.00001E0,2.6518514E0,8.302914E-2,2.00001E0,2.00001E0,6.379833E-2,5.7426848E-2,2.00001E0,-4.6729606E-2,2.00001E0,-1.715582E0,1.3678576E0,5.7426374E-2,2.00001E0,-1.20821185E-1,-1.2064624E-1,-3.2767433E-1,2.00001E0,-3.9940262E-1,7.8119713E-1,2.00001E0,-1.5572989E0,5.7356715E-2,1.6216403E0,8.776987E-1,2.00001E0,6.004375E-1,2.00001E0,2.00001E0,2.00001E0,1.520244E-1,1.2546527E0,2.0590577E-1,-1.229934E0,8.302871E-2,-1.23784125E-1,1.0238725E-1,-6.797307E-2,-1.155669E-1,1.4023127E-2,-3.736054E-2,4.9946778E-2,-8.404125E-2,8.891352E-2,1.8915827E-4,-1.1530508E-1,6.373099E-2,-1.2515612E-1,-6.623941E-2,1.2060932E-2,-2.4020516E-3,-3.9988626E-2,-9.692741E-2,8.916321E-2,-9.566941E-2,2.0449137E-2,-2.2866942E-3,6.294818E-2,3.9191127E-2,-7.886427E-2],"split_indices":[10,345,0,138,9,0,107,124,8,0,150,9,52,7,3,0,67,9,0,8,282,8,3,347,6,0,6,3,17,6,209,16,372,3,3,3,0,0,0,0,0,0,0,0,0,0,0,0,0,0,0,0,0,0,0,0,0,0,0,0,0,0,0],"split_type":[0,0,0,0,0,0,0,0,0,0,0,0,0,0,0,0,0,0,0,0,0,0,0,0,0,0,0,0,0,0,0,0,0,0,0,0,0,0,0,0,0,0,0,0,0,0,0,0,0,0,0,0,0,0,0,0,0,0,0,0,0,0,0],"sum_hessian":[2.0593785E4,1.5838307E4,4.755478E3,7.5374214E1,1.5762933E4,1.6445087E0,7.3729706E1,1.554583E4,2.1710294E2,2.004293E0,7.172541E1,1.1003951E2,1.543579E4,1.9344662E2,2.3656301E1,2.0042834E0,6.972113E1,9.815783E1,1.1881686E1,6.480452E1,1.5370985E4,4.536863E1,1.48078E2,1.9286243E1,4.370058E0,2.0051467E0,6.771598E1,7.302354E1,2.5134296E1,2.4992613E1,3.9811905E1,9.6371605E1,1.5274614E4,1.2349833E1,3.3018795E1,1.22391495E2,2.5686504E1,1.6444991E0,1.7641745E1,3.2889981E0,1.0810602E0,6.481137E1,2.9046073E0,4.6843296E1,2.6180237E1,1.7989572E0,2.3335339E1,1.6066326E1,8.926287E0,1.7344284E0,3.8077477E1,1.4425344E1,8.194626E1,1.04909225E2,1.5169705E4,2.873112E0,9.476721E0,2.740186E1,5.616936E0,7.777268E1,4.4618813E1,7.443723E0,1.824278E1],"tree_param":{"num_deleted":"0","num_feature":"385","num_nodes":"63","size_leaf_vector":"1"}},{"base_weights":[6.5347077E-3,-3.4912014E-1,1.2472185E-1,-1.2952049E-1,-1.9821001E-2,1.3467345E-1,-4.715332E-1,-1.2951289E-1,2.2666095E-1,1.3469192E-1,-1.2949009E-1],"categories":[],"categories_nodes":[],"categories_segments":[],"categories_sizes":[],"default_left":[0,0,0,0,0,0,0,0,0,0,0],"id":9,"left_children":[1,3,-1,-1,5,-1,7,-1,9,-1,-1],"loss_changes":[8.9528E3,4.91274E3,0E0,0E0,7.2220337E3,0E0,5.056544E3,0E0,8.1147744E3,0E0,0E0],"parents":[2147483647,0,0,1,1,4,4,6,6,8,8],"right_children":[2,4,-1,-1,6,-1,8,-1,10,-1,-1],"split_conditions":[2.6517875E0,-3.0101708E-1,1.2472185E-1,-1.2952049E-1,-2.7469975E-1,1.3467345E-1,-2.027657E-1,-1.2951289E-1,6.7425564E-2,1.3469192E-1,-1.2949009E-1],"split_indices":[4,4,0,0,4,0,4,0,4,0,0],"split_type":[0,0,0,0,0,0,0,0,0,0,0],"sum_hessian":[2.0287402E4,1.5768048E4,4.5193555E3,4.0704912E3,1.1697557E4,2.9055317E3,8.792024E3,4.0333713E3,4.7586533E3,2.7408225E3,2.0178307E3],"tree_param":{"num_deleted":"0","num_feature":"385","num_nodes":"11","size_leaf_vector":"1"}},{"base_weights":[-1.589688E-3,-3.4606615E-1,1.21817805E-1,-1.259289E-1,-2.7998697E-2,1.3030598E-1,-4.5452052E-1,-1.2592487E-1,2.2505416E-1,1.303071E-1,-1.2589975E-1],"categories":[],"categories_nodes":[],"categories_segments":[],"categories_sizes":[],"default_left":[0,0,0,0,0,0,0,0,0,0,0],"id":10,"left_children":[1,3,-1,-1,5,-1,7,-1,9,-1,-1],"loss_changes":[7.85791E3,4.2357974E3,0E0,0E0,6.141585E3,0E0,4.480592E3,0E0,7.108956E3,0E0,0E0],"parents":[2147483647,0,0,1,1,4,4,6,6,8,8],"right_children":[2,4,-1,-1,6,-1,8,-1,10,-1,-1],"split_conditions":[2.6517875E0,-3.0101708E-1,1.21817805E-1,-1.259289E-1,-2.7469975E-1,1.3030598E-1,-2.027657E-1,-1.2592487E-1,6.7425564E-2,1.303071E-1,-1.2589975E-1],"split_indices":[4,4,0,0,4,0,4,0,4,0,0],"split_type":[0,0,0,0,0,0,0,0,0,0,0],"sum_hessian":[1.8699234E4,1.4581865E4,4.11737E3,3.7660295E3,1.0815835E4,2.6242407E3,8.1915947E3,3.7500571E3,4.4415376E3,2.5727854E3,1.8687522E3],"tree_param":{"num_deleted":"0","num_feature":"385","num_nodes":"11","size_leaf_vector":"1"}},{"base_weights":[-1.3929817E-3,-3.3543465E-1,1.1931013E-1,-1.2285385E-1,-2.4355283E-2,1.2658325E-1,-4.4804695E-1,-1.22850515E-1,2.1571386E-1,1.266023E-1,-1.2282639E-1],"categories":[],"categories_nodes":[],"categories_segments":[],"categories_sizes":[],"default_left":[0,0,0,0,0,0,0,0,0,0,0],"id":11,"left_children":[1,3,-1,-1,5,-1,7,-1,9,-1,-1],"loss_changes":[6.900605E3,3.754745E3,0E0,0E0,5.4803984E3,0E0,3.909941E3,0E0,6.18833E3,0E0,0E0],"parents":[2147483647,0,0,1,1,4,4,6,6,8,8],"right_children":[2,4,-1,-1,6,-1,8,-1,10,-1,-1],"split_conditions":[2.6517875E0,-3.0101708E-1,1.1931013E-1,-1.2285385E-1,-2.7469975E-1,1.2658325E-1,-2.027657E-1,-1.22850515E-1,6.7425564E-2,1.266023E-1,-1.2282639E-1],"split_indices":[4,4,0,0,4,0,4,0,4,0,0],"split_type":[0,0,0,0,0,0,0,0,0,0,0],"sum_hessian":[1.7292275E4,1.3513835E4,3.7784402E3,3.4902976E3,1.0023538E4,2.477448E3,7.54609E3,3.46778E3,4.0783096E3,2.361062E3,1.7172476E3],"tree_param":{"num_deleted":"0","num_feature":"385","num_nodes":"11","size_leaf_vector":"1"}},{"base_weights":[-3.0338627E-3,-3.3096853E-1,1.17132865E-1,-1.2020741E-1,-2.8046153E-2,1.2341728E-1,-4.4228545E-1,-1.2020399E-1,2.0502585E-1,1.234289E-1,-1.2017913E-1],"categories":[],"categories_nodes":[],"categories_segments":[],"categories_sizes":[],"default_left":[0,0,0,0,0,0,0,0,0,0,0],"id":12,"left_children":[1,3,-1,-1,5,-1,7,-1,9,-1,-1],"loss_changes":[6.168794E3,3.3041099E3,0E0,0E0,4.858831E3,0E0,3.4411384E3,0E0,5.4729756E3,0E0,0E0],"parents":[2147483647,0,0,1,1,4,4,6,6,8,8],"right_children":[2,4,-1,-1,6,-1,8,-1,10,-1,-1],"split_conditions":[2.6517875E0,-3.0101708E-1,1.17132865E-1,-1.2020741E-1,-2.7469975E-1,1.2341728E-1,-2.027657E-1,-1.2020399E-1,6.7425564E-2,1.234289E-1,-1.2017913E-1],"split_indices":[4,4,0,0,4,0,4,0,4,0,0],"split_type":[0,0,0,0,0,0,0,0,0,0,0],"sum_hessian":[1.6016083E4,1.2520513E4,3.4955706E3,3.2297737E3,9.290739E3,2.2951775E3,6.9955615E3,3.217868E3,3.7776938E3,2.1816592E3,1.5960347E3],"tree_param":{"num_deleted":"0","num_feature":"385","num_nodes":"11","size_leaf_vector":"1"}},{"base_weights":[1.9540738E-3,-3.175099E-1,1.15233004E-1,-7.657548E-1,-3.1540906E-1,6.709714E-2,-8.1316954E-1,1.4968302E-2,-3.1764632E-1,-1.1338723E-1,-4.7922793E-1,3.762489E-1,-2.5921854E-1,8.279848E-3,-3.1979972E-1,3.727163E-2,-7.709109E-1,-5.092076E-1,5.4695475E-1,8.498805E-2,-3.4216928E-1,-1.0502583E-1,1.5050554E-1,-7.0327353E-1,-3.1798893E-1,4.4669682E-1,-8.6181246E-2,6.682032E-2,-9.225468E-1,6.593518E-2,-9.4029434E-2,5.151585E-2,6.386997E-1,7.7511124E-2,-4.329689E-1,3.2836154E-1,-2.1868297E-1,7.224613E-2,-7.9666954E-1,-7.244733E-1,-3.1621614E-1,4.0759724E-3,6.1265666E-2,4.0046286E-2,-1.09859005E-1,-7.417289E-2,5.765443E-2,4.5144472E-2,9.208246E-2,4.768212E-2,-5.747514E-2,4.1875392E-2,-4.2016637E-2,-6.566792E-2,4.0196825E-2,-4.880734E-2,-1.12897836E-1,-9.7296715E-2,-9.168763E-3,-6.740287E-2,-3.1441983E-2],"categories":[],"categories_nodes":[],"categories_segments":[],"categories_sizes":[],"default_left":[0,0,0,0,0,0,0,0,0,0,0,0,0,0,0,0,0,0,0,0,0,0,0,0,0,0,0,0,0,0,0,0,0,0,0,0,0,0,0,0,0,0,0,0,0,0,0,0,0,0,0,0,0,0,0,0,0,0,0,0,0],"id":13,"left_children":[1,3,-1,5,7,-1,9,11,13,-1,15,17,19,21,23,25,27,29,31,-1,33,-1,35,37,39,41,-1,-1,43,-1,-1,45,47,-1,49,51,53,-1,55,57,59,-1,-1,-1,-1,-1,-1,-1,-1,-1,-1,-1,-1,-1,-1,-1,-1,-1,-1,-1,-1],"loss_changes":[5.428335E3,1.0644653E1,0E0,4.17161E0,8.510986E0,0E0,5.0234184E0,7.859969E0,8.025391E0,0E0,4.1259565E0,5.45082E0,4.4439983E0,1.1600383E1,7.661743E0,4.3492427E0,4.419367E0,3.6669943E0,1.2930098E0,0E0,4.668955E0,0E0,4.528654E0,7.572439E0,7.9171143E0,5.179093E-1,0E0,0E0,4.209717E0,0E0,0E0,2.7788503E0,8.7993526E-1,0E0,5.4525666E0,3.3023849E0,6.426082E0,0E0,4.5549793E0,7.5076504E0,7.0231934E0,0E0,0E0,0E0,0E0,0E0,0E0,0E0,0E0,0E0,0E0,0E0,0E0,0E0,0E0,0E0,0E0,0E0,0E0,0E0,0E0],"parents":[2147483647,0,0,1,1,3,3,4,4,6,6,7,7,8,8,10,10,11,11,12,12,13,13,14,14,15,15,16,16,17,17,18,18,20,20,22,22,23,23,24,24,25,25,28,28,31,31,32,32,34,34,35,35,36,36,38,38,39,39,40,40],"right_children":[2,4,-1,6,8,-1,10,12,14,-1,16,18,20,22,24,26,28,30,32,-1,34,-1,36,38,40,42,-1,-1,44,-1,-1,46,48,-1,50,52,54,-1,56,58,60,-1,-1,-1,-1,-1,-1,-1,-1,-1,-1,-1,-1,-1,-1,-1,-1,-1,-1,-1,-1],"split_conditions":[4.352603E0,2.00001E0,1.15233004E-1,2.00001E0,2.00001E0,6.709714E-2,5.0823015E-1,-1.9611572E-1,2.00001E0,-1.1338723E-1,-2.0583823E-1,-6.5054595E-1,2.00001E0,-1.0288737E0,2.00001E0,1.0876182E0,2.00001E0,2.00001E0,-7.26673E-1,8.498805E-2,2.00001E0,-1.0502583E-1,3.6338314E-1,2.00001E0,2.00001E0,-3.2245496E-1,-8.6181246E-2,6.682032E-2,2.00001E0,6.593518E-2,-9.4029434E-2,1.0876182E0,-2.0271729E-1,7.7511124E-2,-1.4216977E0,1.1245302E0,1.5221592E0,7.224613E-2,-2.5299193E-2,9.427712E-1,2.00001E0,4.0759724E-3,6.1265666E-2,4.0046286E-2,-1.09859005E-1,-7.417289E-2,5.765443E-2,4.5144472E-2,9.208246E-2,4.768212E-2,-5.747514E-2,4.1875392E-2,-4.2016637E-2,-6.566792E-2,4.0196825E-2,-4.880734E-2,-1.12897836E-1,-9.7296715E-2,-9.168763E-3,-6.740287E-2,-3.1441983E-2],"split_indices":[10,36,0,287,372,0,0,9,340,0,9,0,80,6,341,0,341,176,3,0,87,0,0,198,163,3,0,0,349,0,0,0,9,0,6,5,0,0,3,0,295,0,0,0,0,0,0,0,0,0,0,0,0,0,0,0,0,0,0,0,0],"split_type":[0,0,0,0,0,0,0,0,0,0,0,0,0,0,0,0,0,0,0,0,0,0,0,0,0,0,0,0,0,0,0,0,0,0,0,0,0,0,0,0,0,0,0,0,0,0,0,0,0,0,0,0,0,0,0,0,0,0,0,0,0],"sum_hessian":[1.4768839E4,1.1559456E4,3.2093826E3,5.222795E1,1.1507229E4,1.2484117E0,5.0979538E1,7.736226E1,1.1429866E4,2.478332E1,2.6196218E1,3.3219093E1,4.414316E1,7.500275E1,1.1354863E4,9.769332E0,1.6426888E1,5.048649E0,2.8170444E1,2.4284031E0,4.171476E1,8.127564E0,6.687518E1,5.154568E1,1.1303317E4,7.05829E0,2.7110415E0,1.2411364E0,1.5185751E1,1.2178571E0,3.8307917E0,4.6454887E0,2.3524956E1,2.5688472E0,3.9145912E1,4.5207245E1,2.1667936E1,2.754928E0,4.8790752E1,4.7312756E1,1.1256005E4,2.4097214E0,4.6485686E0,1.6336511E0,1.35521E1,1.6857759E0,2.959713E0,1.570273E1,7.8222246E0,4.959397E0,3.4186516E1,4.072933E1,4.477918E0,1.2669187E1,8.998749E0,2.6578012E1,2.221274E1,3.3586E1,1.3726756E1,5.4355484E1,1.1201649E4],"tree_param":{"num_deleted":"0","num_feature":"385","num_nodes":"61","size_leaf_vector":"1"}},{"base_weights":[7.468967E-3,-1.173378E-1,3.0237478E-1,1.7601298E-2,1.1356872E-1,1.2133988E-1,-3.8914412E-1,-1.1733369E-1,2.4744631E-1,1.2134633E-1,-1.1730051E-1],"categories":[],"categories_nodes":[],"categories_segments":[],"categories_sizes":[],"default_left":[0,0,0,0,0,0,0,0,0,0,0],"id":14,"left_children":[1,-1,3,5,-1,-1,7,-1,9,-1,-1],"loss_changes":[5.0675146E3,0E0,2.7631313E3,4.221917E3,0E0,0E0,3.233713E3,0E0,4.908084E3,0E0,0E0],"parents":[2147483647,0,0,2,2,3,3,6,6,8,8],"right_children":[2,-1,4,6,-1,-1,8,-1,10,-1,-1],"split_conditions":[-3.0101708E-1,-1.173378E-1,2.6517875E0,-2.7469975E-1,1.1356872E-1,1.2133988E-1,-2.027657E-1,-1.1733369E-1,6.7425564E-2,1.2134633E-1,-1.1730051E-1],"split_indices":[4,0,4,4,0,0,4,0,4,0,0],"split_type":[0,0,0,0,0,0,0,0,0,0,0],"sum_hessian":[1.4549824E4,2.9069565E3,1.1642868E4,8.678222E3,2.964646E3,2.2021377E3,6.476084E3,2.9012705E3,3.5748135E3,2.1278538E3,1.4469597E3],"tree_param":{"num_deleted":"0","num_feature":"385","num_nodes":"11","size_leaf_vector":"1"}},{"base_weights":[1.7649595E-3,-2.9077992E-1,1.1210555E-1,5.719818E-2,-2.9331294E-1,1.5682101E-1,-7.2146446E-1,-3.104896E-1,-2.4289474E-1,2.855354E-1,-2.7017766E-1,-9.965382E-2,6.250858E-2,-8.0253714E-1,-3.0826035E-1,-3.442198E-1,-2.1920243E-1,1.12218894E-1,6.987788E-1,4.7524408E-1,-6.0155064E-1,6.43342E-2,-8.7265885E-1,6.0160425E-2,-3.1097007E-1,-3.748625E-1,2.9972392E-1,-1.0238898E-1,-2.1568674E-1,2.4989724E-1,-9.189166E-2,8.4317185E-2,4.0718484E-1,5.8549074E-3,6.99342E-2,6.398222E-2,-7.9633564E-1,6.433211E-2,-9.4789046E-1,-9.265343E-2,1.5229669E-1,-3.147597E-1,-4.6513584E-2,6.809131E-1,-3.8878977E-1,-9.049985E-2,5.6497437E-1,-1.02529876E-1,-2.122306E-1,1.1890701E-2,9.196246E-2,-4.8353076E-3,6.329086E-2,6.398222E-2,-1.0386931E-1,5.5229336E-2,-1.0283486E-1,8.801434E-2,3.5843856E-3,-2.9528385E-2,-3.6776524E-2,2.6060406E-2,-2.9237974E-2,8.7514184E-2,1.5026874E-2,4.306558E-2,-4.0135268E-2,-6.479257E-2,6.8353586E-2,-1.0247343E-1,-2.0875705E-2],"categories":[],"categories_nodes":[],"categories_segments":[],"categories_sizes":[],"default_left":[0,0,0,0,0,0,0,0,0,0,0,0,0,0,0,0,0,0,0,0,0,0,0,0,0,0,0,0,0,0,0,0,0,0,0,0,0,0,0,0,0,0,0,0,0,0,0,0,0,0,0,0,0,0,0,0,0,0,0,0,0,0,0,0,0,0,0,0,0,0,0],"id":15,"left_children":[1,3,-1,5,7,9,11,13,15,17,19,-1,-1,21,23,25,27,29,31,33,35,-1,37,39,41,43,45,-1,47,49,-1,-1,51,-1,-1,-1,53,-1,55,-1,57,59,61,63,65,-1,67,-1,69,-1,-1,-1,-1,-1,-1,-1,-1,-1,-1,-1,-1,-1,-1,-1,-1,-1,-1,-1,-1,-1,-1],"loss_changes":[4.3572466E3,9.315552E0,0E0,6.0920577E0,8.994751E0,3.8779125E0,3.927299E0,8.317749E0,6.3247223E0,3.762148E0,4.369322E0,0E0,0E0,4.068779E0,7.7806396E0,1.0047371E1,5.8999023E0,5.7619615E0,3.1573343E-1,4.8627973E-1,3.383389E0,0E0,4.421093E0,5.3779798E0,7.72052E0,7.338394E0,7.9973364E0,0E0,5.8135223E0,2.9756382E0,0E0,0E0,7.6252043E-1,0E0,0E0,0E0,4.3954067E0,0E0,4.4596443E0,0E0,4.506827E0,7.74646E0,8.398335E0,5.514989E-1,5.0673065E0,0E0,3.2923417E0,0E0,5.846878E0,0E0,0E0,0E0,0E0,0E0,0E0,0E0,0E0,0E0,0E0,0E0,0E0,0E0,0E0,0E0,0E0,0E0,0E0,0E0,0E0,0E0,0E0],"parents":[2147483647,0,0,1,1,3,3,4,4,5,5,6,6,7,7,8,8,9,9,10,10,13,13,14,14,15,15,16,16,17,17,18,18,19,19,20,20,22,22,23,23,24,24,25,25,26,26,28,28,29,29,32,32,36,36,38,38,40,40,41,41,42,42,43,43,44,44,46,46,48,48],"right_children":[2,4,-1,6,8,10,12,14,16,18,20,-1,-1,22,24,26,28,30,32,34,36,-1,38,40,42,44,46,-1,48,50,-1,-1,52,-1,-1,-1,54,-1,56,-1,58,60,62,64,66,-1,68,-1,70,-1,-1,-1,-1,-1,-1,-1,-1,-1,-1,-1,-1,-1,-1,-1,-1,-1,-1,-1,-1,-1,-1],"split_conditions":[4.352603E0,2.00001E0,1.1210555E-1,-3.7957855E-2,9.427712E-1,6.530772E-1,1.6093538E0,2.00001E0,-2.1100901E-1,-1.1537765E-1,2.00001E0,-9.965382E-2,6.250858E-2,2.00001E0,2.00001E0,1.6934866E0,2.00001E0,-1.5976037E-1,6.152764E-2,-1.891108E-1,2.00001E0,6.43342E-2,2.00001E0,-3.9940262E-1,2.6518514E0,2.00001E0,-9.366089E-1,-1.0238898E-1,2.00001E0,-1.6227944E-1,-9.189166E-2,8.4317185E-2,9.722923E-1,5.8549074E-3,6.99342E-2,6.398222E-2,2.00001E0,6.433211E-2,2.00001E0,-9.265343E-2,-3.8529035E-1,2.1853612E-1,3.826067E0,-1.0966225E0,2.00001E0,-9.049985E-2,-4.008105E-1,-1.02529876E-1,2.00001E0,1.1890701E-2,9.196246E-2,-4.8353076E-3,6.329086E-2,6.398222E-2,-1.0386931E-1,5.5229336E-2,-1.0283486E-1,8.801434E-2,3.5843856E-3,-2.9528385E-2,-3.6776524E-2,2.6060406E-2,-2.9237974E-2,8.7514184E-2,1.5026874E-2,4.306558E-2,-4.0135268E-2,-6.479257E-2,6.8353586E-2,-1.0247343E-1,-2.0875705E-2],"split_indices":[10,124,0,9,0,0,3,289,9,9,16,0,0,178,180,7,295,9,6,8,258,0,142,8,9,320,6,0,322,9,0,0,6,0,0,0,350,0,194,0,8,0,9,3,363,0,8,0,117,0,0,0,0,0,0,0,0,0,0,0,0,0,0,0,0,0,0,0,0,0,0],"split_type":[0,0,0,0,0,0,0,0,0,0,0,0,0,0,0,0,0,0,0,0,0,0,0,0,0,0,0,0,0,0,0,0,0,0,0,0,0,0,0,0,0,0,0,0,0,0,0,0,0,0,0,0,0,0,0,0,0,0,0,0,0,0,0,0,0,0,0,0,0,0,0],"sum_hessian":[1.3304903E4,1.0548596E4,2.7563076E3,7.607514E1,1.04725205E4,6.815405E1,7.921091E0,7.807481E3,2.6650393E3,5.2622757E1,1.5531295E1,6.7932887E0,1.1278024E0,3.3593616E1,7.773887E3,5.024934E2,2.162546E3,3.7969643E1,1.4653114E1,4.6459928E0,1.0885303E1,1.1757385E0,3.2417877E1,5.660478E1,7.717282E3,4.8006683E2,2.242657E1,8.14458E0,2.1544014E3,3.4165478E1,3.8041642E0,8.535076E0,6.1180387E0,2.0658846E0,2.5801082E0,1.1664847E0,9.718818E0,1.1756834E0,3.1242195E1,4.0608354E0,5.254394E1,7.60807E3,1.0921267E2,5.626845E0,4.7444E2,3.6115701E0,1.8815E1,7.9010572E0,2.1465002E3,2.956122E1,4.6042576E0,2.2874577E0,3.830581E0,1.1664847E0,8.552333E0,1.2917863E0,2.9950409E1,6.342773E0,4.6201168E1,5.568575E3,2.0394946E3,4.853119E1,6.0681484E1,3.6438873E0,1.9829576E0,6.6612835E0,4.6777872E2,1.2778213E0,1.753718E1,7.8858676E0,2.1386145E3],"tree_param":{"num_deleted":"0","num_feature":"385","num_nodes":"71","size_leaf_vector":"1"}},{"base_weights":[8.412126E-3,-1.1495242E-1,2.9791647E-1,4.448655E-2,1.10813476E-1,1.1944608E-1,-3.585543E-1,-1.1494934E-1,2.6843736E-1,1.1943628E-1,-1.1491203E-1],"categories":[],"categories_nodes":[],"categories_segments":[],"categories_sizes":[],"default_left":[0,0,0,0,0,0,0,0,0,0,0],"id":16,"left_children":[1,-1,3,5,-1,-1,7,-1,9,-1,-1],"loss_changes":[4.3686553E3,0E0,2.1406265E3,3.6816257E3,0E0,0E0,2.917238E3,0E0,4.3089507E3,0E0,0E0],"parents":[2147483647,0,0,2,2,3,3,6,6,8,8],"right_children":[2,-1,4,6,-1,-1,8,-1,10,-1,-1],"split_conditions":[-3.0101708E-1,-1.1495242E-1,2.6517875E0,-2.7469975E-1,1.10813476E-1,1.1944608E-1,-2.027657E-1,-1.1494934E-1,6.7425564E-2,1.1943628E-1,-1.1491203E-1],"split_indices":[4,0,4,4,0,0,4,0,4,0,0],"split_type":[0,0,0,0,0,0,0,0,0,0,0],"sum_hessian":[1.3029886E4,2.605529E3,1.0424357E4,7.9414033E3,2.4829536E3,2.0604556E3,5.8809478E3,2.600115E3,3.2808328E3,1.9846497E3,1.2961832E3],"tree_param":{"num_deleted":"0","num_feature":"385","num_nodes":"11","size_leaf_vector":"1"}},{"base_weights":[3.5200177E-3,-1.1332134E-1,2.9029042E-1,3.9354566E-2,1.0967051E-1,1.1724658E-1,-3.6051E-1,-1.1332053E-1,2.560801E-1,1.1723282E-1,-1.1327814E-1],"categories":[],"categories_nodes":[],"categories_segments":[],"categories_sizes":[],"default_left":[0,0,0,0,0,0,0,0,0,0,0],"id":17,"left_children":[1,-1,3,5,-1,-1,7,-1,9,-1,-1],"loss_changes":[3.878956E3,0E0,1.922794E3,3.2844634E3,0E0,0E0,2.5531504E3,0E0,3.7947395E3,0E0,0E0],"parents":[2147483647,0,0,2,2,3,3,6,6,8,8],"right_children":[2,-1,4,6,-1,-1,8,-1,10,-1,-1],"split_conditions":[-3.0101708E-1,-1.1332134E-1,2.6517875E0,-2.7469975E-1,1.0967051E-1,1.1724658E-1,-2.027657E-1,-1.1332053E-1,6.7425564E-2,1.1723282E-1,-1.1327814E-1],"split_indices":[4,0,4,4,0,0,4,0,4,0,0],"split_type":[0,0,0,0,0,0,0,0,0,0,0],"sum_hessian":[1.1897304E4,2.3961636E3,9.50114E3,7.2470806E3,2.2540596E3,1.8898394E3,5.357241E3,2.377269E3,2.9799722E3,1.7955697E3,1.1844023E3],"tree_param":{"num_deleted":"0","num_feature":"385","num_nodes":"11","size_leaf_vector":"1"}},{"base_weights":[3.0569027E-3,-2.5265282E-1,1.0865772E-1,6.0468648E-2,-2.548016E-1,6.3691795E-1,-3.1847123E-2,-2.2669534E-1,-2.784012E-1,3.0025197E-3,8.133731E-2,-8.5635714E-2,3.809765E-2,-8.0221975E-1,-2.2404392E-1,-2.653344E-1,-4.401076E-1,1.7723173E-1,-3.554377E-1,2.8943282E-1,-1.0450039E-1,-2.1816699E-1,-4.6125126E-1,-9.255609E-1,-2.626332E-1,-5.088551E-1,-2.1404281E-1,3.461548E-1,-6.2635744E-1,6.95622E-2,-7.7913624E-1,5.8192223E-2,2.0421909E-3,-2.237636E-1,2.1745574E-2,-2.2547385E-1,-6.3555163E-1,7.371861E-3,-1.0488393E-1,-1.3892456E-2,-2.686239E-1,5.237322E-1,-5.258506E-1,-3.8691522E-3,-6.1968297E-1,4.1898545E-2,-6.744922E-2,-9.2773914E-2,5.0549507E-2,5.07254E-2,-9.950314E-2,5.8190938E-2,-5.7108242E-2,2.0415038E-2,-2.2680791E-2,-4.0548217E-2,1.4444432E-2,1.0654713E-2,-4.904239E-2,6.621208E-2,-7.030981E-2,-9.1667764E-2,3.6100156E-3,-1.0355611E-1,-2.6600529E-2,1.5891448E-2,6.644775E-2,5.1663347E-2,-5.376215E-2,-2.1060307E-2,4.373099E-2,3.6473524E-2,-7.34038E-2],"categories":[],"categories_nodes":[],"categories_segments":[],"categories_sizes":[],"default_left":[0,0,0,0,0,0,0,0,0,0,0,0,0,0,0,0,0,0,0,0,0,0,0,0,0,0,0,0,0,0,0,0,0,0,0,0,0,0,0,0,0,0,0,0,0,0,0,0,0,0,0,0,0,0,0,0,0,0,0,0,0,0,0,0,0,0,0,0,0,0,0,0,0],"id":18,"left_children":[1,3,-1,5,7,9,11,13,15,-1,-1,-1,17,19,21,23,25,27,29,31,-1,33,35,37,39,41,43,45,47,-1,49,-1,51,53,55,57,59,-1,-1,61,63,65,67,69,71,-1,-1,-1,-1,-1,-1,-1,-1,-1,-1,-1,-1,-1,-1,-1,-1,-1,-1,-1,-1,-1,-1,-1,-1,-1,-1,-1,-1],"loss_changes":[3.0396099E3,5.9874268E0,0E0,3.2825687E0,5.7843018E0,8.8689756E-1,3.134908E0,5.9684143E0,9.999451E0,0E0,0E0,0E0,2.8305118E0,5.0967045E0,5.492218E0,7.6612854E0,5.430443E0,5.376393E0,6.569557E0,3.41282E-1,0E0,5.2640076E0,3.8059235E0,2.2532654E0,6.5759583E0,5.059082E0,7.230735E0,2.6651163E0,2.842505E0,0E0,3.3147798E0,0E0,1.3487762E0,5.032593E0,4.786855E0,3.7817202E0,5.2603436E0,0E0,0E0,4.76739E0,8.383636E0,1.4676571E-1,3.5746155E0,5.281004E0,3.5266733E0,0E0,0E0,0E0,0E0,0E0,0E0,0E0,0E0,0E0,0E0,0E0,0E0,0E0,0E0,0E0,0E0,0E0,0E0,0E0,0E0,0E0,0E0,0E0,0E0,0E0,0E0,0E0,0E0],"parents":[2147483647,0,0,1,1,3,3,4,4,5,5,6,6,7,7,8,8,12,12,13,13,14,14,15,15,16,16,17,17,18,18,19,19,21,21,22,22,23,23,24,24,25,25,26,26,27,27,28,28,30,30,32,32,33,33,34,34,35,35,36,36,39,39,40,40,41,41,42,42,43,43,44,44],"right_children":[2,4,-1,6,8,10,12,14,16,-1,-1,-1,18,20,22,24,26,28,30,32,-1,34,36,38,40,42,44,46,48,-1,50,-1,52,54,56,58,60,-1,-1,62,64,66,68,70,72,-1,-1,-1,-1,-1,-1,-1,-1,-1,-1,-1,-1,-1,-1,-1,-1,-1,-1,-1,-1,-1,-1,-1,-1,-1,-1,-1,-1],"split_conditions":[4.352603E0,2.00001E0,1.0865772E-1,-1.4990231E0,-2.7235687E-1,2.00001E0,-1.1507515E0,2.00001E0,1.4498576E0,3.0025197E-3,8.133731E-2,-8.5635714E-2,6.113344E-1,-2.3321652E-1,1.638342E0,2.00001E0,1.0286742E0,6.726262E-1,-3.6470994E-1,-1.519628E0,-1.0450039E-1,1.6668668E0,-4.62716E-1,-1.374781E0,-1.6714828E0,2.00001E0,1.4609107E0,9.565304E-1,5.9744585E-1,6.95622E-2,2.00001E0,5.8192223E-2,2.00001E0,2.00001E0,-3.8529035E-1,-9.666459E-2,2.00001E0,7.371861E-3,-1.0488393E-1,-2.2236024E-1,2.00001E0,-1.20292045E-1,2.00001E0,1.3513604E0,-2.6483336E-1,4.1898545E-2,-6.744922E-2,-9.2773914E-2,5.0549507E-2,5.07254E-2,-9.950314E-2,5.8190938E-2,-5.7108242E-2,2.0415038E-2,-2.2680791E-2,-4.0548217E-2,1.4444432E-2,1.0654713E-2,-4.904239E-2,6.621208E-2,-7.030981E-2,-9.1667764E-2,3.6100156E-3,-1.0355611E-1,-2.6600529E-2,1.5891448E-2,6.644775E-2,5.1663347E-2,-5.376215E-2,-2.1060307E-2,4.373099E-2,3.6473524E-2,-7.34038E-2],"split_indices":[10,258,0,5,8,12,5,256,7,0,0,0,7,9,3,250,3,3,8,0,0,7,7,0,3,362,3,8,7,0,173,0,56,340,8,9,346,0,0,9,125,3,139,5,8,0,0,0,0,0,0,0,0,0,0,0,0,0,0,0,0,0,0,0,0,0,0,0,0,0,0,0,0],"split_type":[0,0,0,0,0,0,0,0,0,0,0,0,0,0,0,0,0,0,0,0,0,0,0,0,0,0,0,0,0,0,0,0,0,0,0,0,0,0,0,0,0,0,0,0,0,0,0,0,0,0,0,0,0,0,0,0,0,0,0,0,0,0,0,0,0,0,0,0,0,0,0,0,0],"sum_hessian":[1.0968689E4,8.874972E3,2.0937178E3,6.0303444E1,8.814668E3,7.5098968E0,5.279355E1,4.0280337E3,4.7866343E3,1.9552491E0,5.5546474E0,3.2491531E0,4.9544395E1,1.7089045E1,4.0109446E3,4.431208E3,3.5542618E2,3.7009396E1,1.2534998E1,3.0741816E0,1.4014864E1,3.9158474E3,9.509731E1,1.6663364E1,4.4145444E3,2.715849E2,8.3841286E1,3.1051315E1,5.9580803E0,3.4169242E0,9.118074E0,1.0156573E0,2.0585241E0,3.826648E3,8.919951E1,4.1395252E1,5.370206E1,1.8741072E0,1.4789256E1,1.0389753E2,4.310647E3,3.9148722E0,2.6767E2,5.5891735E1,2.7949554E1,2.9533382E1,1.5179323E0,4.847625E0,1.1104555E0,1.1164249E0,8.001649E0,1.015624E0,1.0429001E0,2.6565018E1,3.8000828E3,1.9387836E1,6.9811676E1,1.8637548E1,2.2757704E1,2.221483E0,5.148058E1,4.541902E0,9.935563E1,1.3325795E1,4.2973213E3,1.6825987E0,2.2322733E0,2.509703E0,2.651603E2,3.841386E1,1.7477873E1,2.6809819E0,2.5268572E1],"tree_param":{"num_deleted":"0","num_feature":"385","num_nodes":"73","size_leaf_vector":"1"}},{"base_weights":[3.6871157E-4,-2.2873354E-1,1.077551E-1,1.3620271E-1,-2.312914E-1,-3.242436E-1,3.2283878E-1,-6.196871E-1,-2.2939557E-1,-7.9308456E-1,3.490463E-1,4.837256E-1,-4.427892E-1,1.8847117E-2,-1.0652528E-1,8.0723025E-2,-2.3149912E-1,6.069314E-2,-1.0047845E-1,6.0772586E-1,-6.1706968E-2,5.638424E-1,-8.926376E-2,5.5693902E-2,-9.219538E-2,-8.189222E-2,2.250066E-1,1.597107E-1,-5.8422637E-1,-6.1856884E-1,-2.298686E-1,4.5229266E-3,7.996177E-2,6.5172935E-1,1.2489957E-1,-7.628939E-2,5.984005E-2,3.6066192E-1,-6.499653E-2,4.750836E-1,3.1912178E-2,5.871123E-2,-9.1195546E-2,5.8964144E-2,-6.7190224E-1,-2.3508492E-1,-1.1131798E-1,4.944453E-2,9.550498E-2,-6.3073464E-2,4.2768117E-2,-6.388019E-2,5.189233E-2,6.0057145E-2,-5.915881E-2,-5.8578383E-2,1.5044174E-2,-2.9107396E-2,-9.408825E-2,-6.341269E-2,-2.3327038E-2,1.9757187E-2,-1.5879184E-2],"categories":[],"categories_nodes":[],"categories_segments":[],"categories_sizes":[],"default_left":[0,0,0,0,0,0,0,0,0,0,0,0,0,0,0,0,0,0,0,0,0,0,0,0,0,0,0,0,0,0,0,0,0,0,0,0,0,0,0,0,0,0,0,0,0,0,0,0,0,0,0,0,0,0,0,0,0,0,0,0,0,0,0],"id":19,"left_children":[1,3,-1,5,7,9,11,13,15,17,19,21,23,25,-1,27,29,-1,-1,31,-1,33,35,-1,-1,-1,37,39,41,43,45,-1,-1,47,49,-1,-1,51,-1,53,55,-1,-1,-1,57,59,61,-1,-1,-1,-1,-1,-1,-1,-1,-1,-1,-1,-1,-1,-1,-1,-1],"loss_changes":[2.6262578E3,8.222992E0,0E0,5.4076905E0,6.2747498E0,6.052701E0,5.684772E0,1.1896553E1,5.677185E0,3.8973227E0,2.425665E0,1.7570019E0,4.4578543E0,3.3171809E0,0E0,3.2016757E0,5.295532E0,0E0,0E0,7.1683836E-1,0E0,1.1821442E0,2.9690363E0,0E0,0E0,0E0,2.055378E0,2.1484902E0,3.0299873E0,2.686966E0,5.280426E0,0E0,0E0,8.183851E-1,1.8029125E0,0E0,0E0,2.5341625E0,0E0,2.4178133E0,2.9636052E0,0E0,0E0,0E0,3.2616577E0,5.8031006E0,5.362817E0,0E0,0E0,0E0,0E0,0E0,0E0,0E0,0E0,0E0,0E0,0E0,0E0,0E0,0E0,0E0,0E0],"parents":[2147483647,0,0,1,1,3,3,4,4,5,5,6,6,7,7,8,8,9,9,10,10,11,11,12,12,13,13,15,15,16,16,19,19,21,21,22,22,26,26,27,27,28,28,29,29,30,30,33,33,34,34,37,37,39,39,40,40,44,44,45,45,46,46],"right_children":[2,4,-1,6,8,10,12,14,16,18,20,22,24,26,-1,28,30,-1,-1,32,-1,34,36,-1,-1,-1,38,40,42,44,46,-1,-1,48,50,-1,-1,52,-1,54,56,-1,-1,-1,58,60,62,-1,-1,-1,-1,-1,-1,-1,-1,-1,-1,-1,-1,-1,-1,-1,-1],"split_conditions":[4.352603E0,2.00001E0,1.077551E-1,-2.9070163E-1,2.00001E0,1.2246224E0,6.113344E-1,-1.9881293E-1,2.00001E0,2.00001E0,-4.7584426E-1,2.283197E-1,-1.5572989E0,-2.2291726E-1,-1.0652528E-1,1.4761066E-1,2.00001E0,6.069314E-2,-1.0047845E-1,2.00001E0,-6.1706968E-2,6.855577E-1,1.3773122E0,5.5693902E-2,-9.219538E-2,-8.189222E-2,1.4220804E0,2.00001E0,2.00001E0,2.00001E0,7.380935E-1,4.5229266E-3,7.996177E-2,3.922814E-1,1.095164E0,-7.628939E-2,5.984005E-2,4.8807323E-1,-6.499653E-2,7.5280166E-1,-9.4023997E-1,5.871123E-2,-9.1195546E-2,5.8964144E-2,-5.295856E-1,2.00001E0,-3.8811022E-1,4.944453E-2,9.550498E-2,-6.3073464E-2,4.2768117E-2,-6.388019E-2,5.189233E-2,6.0057145E-2,-5.915881E-2,-5.8578383E-2,1.5044174E-2,-2.9107396E-2,-9.408825E-2,-6.341269E-2,-2.3327038E-2,1.9757187E-2,-1.5879184E-2],"split_indices":[10,258,0,8,295,6,7,9,85,130,5,8,6,9,0,8,245,0,0,12,0,3,0,0,0,0,7,17,271,156,9,0,0,3,3,0,0,7,0,3,0,0,0,0,5,79,8,0,0,0,0,0,0,0,0,0,0,0,0,0,0,0,0],"split_type":[0,0,0,0,0,0,0,0,0,0,0,0,0,0,0,0,0,0,0,0,0,0,0,0,0,0,0,0,0,0,0,0,0,0,0,0,0,0,0,0,0,0,0,0,0,0,0,0,0,0,0,0,0,0,0,0,0,0,0,0,0,0,0],"sum_hessian":[1.0639893E4,8.774468E3,1.8654242E3,6.0708935E1,8.713759E3,1.7297441E1,4.341149E1,4.0743774E1,8.673016E3,1.0092011E1,7.2054296E0,3.6177464E1,7.2340293E0,1.713933E1,2.3604443E1,5.8181305E1,8.614834E3,1.0803685E0,9.011643E0,5.9762387E0,1.229191E0,3.1753563E1,4.423899E0,2.291252E0,4.942777E0,2.7977698E0,1.4341559E1,5.2683033E1,5.4982705E0,3.4550255E1,8.580283E3,1.8344823E0,4.1417565E0,2.6052464E1,5.7011013E0,2.17949E0,2.244409E0,1.292541E1,1.4161493E0,1.44087105E1,3.8274323E1,1.0290127E0,4.469258E0,1.0355358E0,3.351472E1,8.217715E3,3.6256885E2,1.8888243E1,7.1642203E0,1.3210645E0,4.380037E0,1.3518347E0,1.1573576E1,1.3283008E1,1.1257033E0,5.527361E0,3.2746964E1,1.4734882E1,1.8779837E1,3.562159E1,8.1820933E3,4.7879295E1,3.1468954E2],"tree_param":{"num_deleted":"0","num_feature":"385","num_nodes":"63","size_leaf_vector":"1"}},{"base_weights":[6.096319E-3,2.9902303E-1,4.058813E-3,3.8191772E-1,-1.787926E-1,-3.1691495E-1,5.53638E-3,4.3354166E-1,-4.0388113E-1,-5.792413E-1,6.6896595E-2,5.1481336E-2,-5.931466E-1,-3.1062666E-1,6.935688E-3,1.4292747E-1,5.406109E-1,3.9625864E-2,-7.801968E-2,3.5094686E-2,-7.8200513E-1,-2.3816192E-1,6.105477E-1,-7.2634405E-1,3.9470947E-1,7.342503E-2,-3.8048497E-1,-2.8534642E-1,8.276596E-3,4.7292575E-1,-5.392225E-1,5.917172E-1,-1.7120495E-1,-9.197595E-2,1.5825393E-3,-9.1743216E-2,1.6617678E-1,6.9542897E-1,2.676226E-3,5.9857327E-2,-8.118763E-1,5.9529033E-2,1.1170584E-2,-5.961927E-1,-8.122584E-2,-5.6113803E-1,-5.812887E-2,-2.8384882E-1,9.612959E-3,-2.3425164E-2,6.031392E-1,1.9084742E-2,-8.563383E-2,6.513563E-1,9.350648E-2,4.505859E-2,-6.5337345E-2,4.1359273E-1,-6.9146045E-2,2.3702452E-2,7.946468E-2,5.3029794E-2,-9.0587866E-1,5.9523206E-2,-6.729153E-1,6.304645E-2,-2.1748635E-1,-6.427047E-1,3.3438172E-2,-2.5796753E-1,5.2683985E-1,-8.6115725E-2,-6.702813E-1,-2.8465208E-1,1.0855477E-2,8.29244E-2,2.1789039E-2,7.334381E-2,1.7035335E-2,5.904735E-2,-4.137176E-2,-2.7423272E-2,6.293091E-2,-9.454962E-2,-2.7469818E-2,5.1474072E-2,-7.5339705E-2,1.688922E-2,-5.209709E-2,-9.247485E-3,-7.566011E-2,1.2944462E-2,-8.4241115E-2,-1.485378E-2,7.104684E-2,8.496908E-3,-5.020948E-2,-8.770078E-3,-7.670187E-2,2.1482585E-2,-4.967557E-2,-2.660186E-2,1.2175003E-3],"categories":[],"categories_nodes":[],"categories_segments":[],"categories_sizes":[],"default_left":[0,0,0,0,0,0,0,0,0,0,0,0,0,0,0,0,0,0,0,0,0,0,0,0,0,0,0,0,0,0,0,0,0,0,0,0,0,0,0,0,0,0,0,0,0,0,0,0,0,0,0,0,0,0,0,0,0,0,0,0,0,0,0,0,0,0,0,0,0,0,0,0,0,0,0,0,0,0,0,0,0,0,0,0,0,0,0,0,0,0,0,0,0,0,0,0,0,0,0,0,0,0,0],"id":20,"left_children":[1,3,5,7,9,11,13,15,17,19,-1,21,23,25,27,29,31,-1,-1,-1,33,35,37,39,41,-1,43,45,47,49,51,53,55,-1,-1,-1,57,59,-1,-1,61,-1,-1,63,65,67,69,71,73,-1,75,-1,-1,77,79,-1,-1,81,-1,-1,-1,-1,83,-1,85,-1,87,89,-1,91,93,95,97,99,101,-1,-1,-1,-1,-1,-1,-1,-1,-1,-1,-1,-1,-1,-1,-1,-1,-1,-1,-1,-1,-1,-1,-1,-1,-1,-1,-1,-1],"loss_changes":[6.255174E0,2.9357605E0,4.939338E0,2.6906672E0,4.252183E0,4.887062E0,4.587465E0,1.7483368E0,1.6161048E0,1.8338103E0,0E0,3.6059327E0,3.8858652E0,3.6145525E0,4.0468955E0,4.1168776E0,1.6479483E0,0E0,0E0,0E0,7.94641E-1,4.2164416E0,3.5669065E-1,3.2573519E0,1.5476769E-1,0E0,2.758759E0,2.9223907E0,4.013379E0,1.2550404E0,1.566563E0,1.1243963E0,1.3807875E0,0E0,0E0,0E0,2.433819E0,1.1057377E-1,0E0,0E0,3.4323206E0,0E0,0E0,2.696145E0,2.0158558E0,1.7623963E0,3.2887247E0,3.519541E0,3.742655E0,0E0,7.3340845E-1,0E0,0E0,1.2750587E0,1.6136603E0,0E0,0E0,1.4310249E0,0E0,0E0,0E0,0E0,2.962742E-1,0E0,2.6879063E0,0E0,2.081841E0,1.1683264E0,0E0,4.812723E0,9.98003E-1,2.3283563E0,8.1750727E-1,4.666549E0,3.724506E0,0E0,0E0,0E0,0E0,0E0,0E0,0E0,0E0,0E0,0E0,0E0,0E0,0E0,0E0,0E0,0E0,0E0,0E0,0E0,0E0,0E0,0E0,0E0,0E0,0E0,0E0,0E0,0E0],"parents":[2147483647,0,0,1,1,2,2,3,3,4,4,5,5,6,6,7,7,8,8,9,9,11,11,12,12,13,13,14,14,15,15,16,16,20,20,21,21,22,22,23,23,24,24,26,26,27,27,28,28,29,29,30,30,31,31,32,32,36,36,37,37,40,40,43,43,44,44,45,45,46,46,47,47,48,48,50,50,53,53,54,54,57,57,62,62,64,64,66,66,67,67,69,69,70,70,71,71,72,72,73,73,74,74],"right_children":[2,4,6,8,10,12,14,16,18,20,-1,22,24,26,28,30,32,-1,-1,-1,34,36,38,40,42,-1,44,46,48,50,52,54,56,-1,-1,-1,58,60,-1,-1,62,-1,-1,64,66,68,70,72,74,-1,76,-1,-1,78,80,-1,-1,82,-1,-1,-1,-1,84,-1,86,-1,88,90,-1,92,94,96,98,100,102,-1,-1,-1,-1,-1,-1,-1,-1,-1,-1,-1,-1,-1,-1,-1,-1,-1,-1,-1,-1,-1,-1,-1,-1,-1,-1,-1,-1],"split_conditions":[2.00001E0,9.8690486E-1,2.00001E0,1.9242547E-1,1.4126467E0,-1.9240198E-1,2.00001E0,-2.9070163E-1,-1.1778218E0,-2.3931055E-1,6.6896595E-2,1.0552917E0,1.5797018E0,-1.7075785E0,2.00001E0,-3.5618466E-1,9.565304E-1,3.9625864E-2,-7.801968E-2,3.5094686E-2,-1.8812227E-1,-2.4458286E-1,7.9792416E-1,2.00001E0,-1.326123E0,7.342503E-2,4.934943E-1,1.9642985E-1,2.00001E0,-5.2176213E-1,-2.023259E-1,5.5867356E-1,-2.0357491E-1,-9.197595E-2,1.5825393E-3,-9.1743216E-2,2.5887117E-1,2.1853612E-1,2.676226E-3,5.9857327E-2,2.00001E0,5.9529033E-2,1.1170584E-2,2.00001E0,5.3403485E-1,1.6670063E0,-2.3323263E-1,-1.5056188E-1,2.00001E0,-2.3425164E-2,2.8743822E-2,1.9084742E-2,-8.563383E-2,6.855577E-1,-2.132624E-1,4.505859E-2,-6.5337345E-2,-2.1604076E-1,-6.9146045E-2,2.3702452E-2,7.946468E-2,5.3029794E-2,9.481326E-1,5.9523206E-2,2.00001E0,6.304645E-2,-6.3574463E-1,-1.2184864E0,3.3438172E-2,-3.4334055E-1,5.349593E-1,4.418523E-1,-3.589128E-1,-9.0252113E-1,2.00001E0,8.29244E-2,2.1789039E-2,7.334381E-2,1.7035335E-2,5.904735E-2,-4.137176E-2,-2.7423272E-2,6.293091E-2,-9.454962E-2,-2.7469818E-2,5.1474072E-2,-7.5339705E-2,1.688922E-2,-5.209709E-2,-9.247485E-3,-7.566011E-2,1.2944462E-2,-8.4241115E-2,-1.485378E-2,7.104684E-2,8.496908E-3,-5.020948E-2,-8.770078E-3,-7.670187E-2,2.1482585E-2,-4.967557E-2,-2.660186E-2,1.2175003E-3],"split_indices":[258,7,143,9,6,9,121,8,3,9,0,3,6,6,333,8,8,0,0,0,9,8,0,283,7,0,6,6,119,3,9,7,9,0,0,0,3,0,0,0,218,0,0,217,6,0,8,9,289,0,3,0,0,3,9,0,0,9,0,0,0,0,7,0,347,0,7,7,0,8,3,3,8,7,350,0,0,0,0,0,0,0,0,0,0,0,0,0,0,0,0,0,0,0,0,0,0,0,0,0,0,0,0],"split_type":[0,0,0,0,0,0,0,0,0,0,0,0,0,0,0,0,0,0,0,0,0,0,0,0,0,0,0,0,0,0,0,0,0,0,0,0,0,0,0,0,0,0,0,0,0,0,0,0,0,0,0,0,0,0,0,0,0,0,0,0,0,0,0,0,0,0,0,0,0,0,0,0,0,0,0,0,0,0,0,0,0,0,0,0,0,0,0,0,0,0,0,0,0,0,0,0,0,0,0,0,0,0,0],"sum_hessian":[1.0481522E4,7.1395706E1,1.0410126E4,6.1011684E1,1.038402E1,4.6724022E1,1.0363402E4,5.7671192E1,3.3404944E0,7.2677507E0,3.1162696E0,2.0370516E1,2.6353504E1,4.469159E1,1.0318711E4,1.6155586E1,4.1515606E1,1.0515803E0,2.288914E0,1.169912E0,6.097839E0,1.379668E1,6.5738363E0,2.3455599E1,2.897906E0,2.2047267E0,4.2486862E1,4.615588E1,1.0272555E4,1.1094972E1,5.0606136E0,3.8892E1,2.6236088E0,5.0696764E0,1.0281621E0,4.6746E0,9.12208E0,5.5723825E0,1.0014539E0,1.0586472E0,2.2396952E1,1.0501395E0,1.8477665E0,2.411349E1,1.8373373E1,2.0185526E1,2.5970352E1,4.5816383E1,1.0226738E4,1.601017E0,9.493955E0,1.6530677E0,3.407546E0,3.445957E1,4.4324255E0,1.1745036E0,1.4491054E0,7.481522E0,1.6405579E0,1.5944885E0,3.977894E0,1.1621629E0,2.1234789E1,1.0499889E0,2.3063501E1,2.3696668E0,1.6003706E1,1.8759192E1,1.426334E0,1.977408E1,6.196271E0,3.1117008E1,1.4699373E1,4.2041225E1,1.0184697E4,5.256434E0,4.2375207E0,2.8988031E1,5.47154E0,2.1559477E0,2.276478E0,1.7214152E0,5.760107E0,1.9512085E1,1.7227037E0,1.1212755E0,2.1942225E1,7.23545E0,8.768256E0,3.5279052E0,1.5231287E1,1.2359688E1,7.414393E0,1.3654184E0,4.8308525E0,2.2612589E1,8.504419E0,2.3647518E0,1.2334621E1,1.2527551E1,2.9513676E1,4.735648E1,1.0137341E4],"tree_param":{"num_deleted":"0","num_feature":"385","num_nodes":"103","size_leaf_vector":"1"}},{"base_weights":[7.7022696E-3,-1.1130052E-1,2.9002723E-1,1.16024174E-1,4.7098156E-2,-1.1129736E-1,5.928125E-1,1.1600393E-1,2.4140674E-1,-1.1124896E-1,1.069482E-1],"categories":[],"categories_nodes":[],"categories_segments":[],"categories_sizes":[],"default_left":[0,0,0,0,0,0,0,0,0,0,0],"id":21,"left_children":[1,-1,3,-1,5,-1,7,-1,9,-1,-1],"loss_changes":[3.324154E3,0E0,1.7740078E3,0E0,4.1545728E3,0E0,8.893237E2,0E0,3.0921973E3,0E0,0E0],"parents":[2147483647,0,0,2,2,4,4,6,6,8,8],"right_children":[2,-1,4,-1,6,-1,8,-1,10,-1,-1],"split_conditions":[-3.0101708E-1,-1.1130052E-1,-2.7469975E-1,1.16024174E-1,-2.027657E-1,-1.1129736E-1,6.7425564E-2,1.1600393E-1,2.6517875E0,-1.1124896E-1,1.069482E-1],"split_indices":[4,0,4,0,4,0,4,0,4,0,0],"split_type":[0,0,0,0,0,0,0,0,0,0,0],"sum_hessian":[1.0504034E4,2.1130803E3,8.390953E3,1.8303921E3,6.5605615E3,2.0985193E3,4.462042E3,1.7059907E3,2.7560513E3,1.0458127E3,1.7102386E3],"tree_param":{"num_deleted":"0","num_feature":"385","num_nodes":"11","size_leaf_vector":"1"}},{"base_weights":[5.730555E-4,-1.1010233E-1,2.8149065E-1,1.14264585E-1,4.8788022E-2,-1.10096775E-1,5.887564E-1,1.14248775E-1,2.4286027E-1,-1.10046364E-1,1.06230855E-1],"categories":[],"categories_nodes":[],"categories_segments":[],"categories_sizes":[],"default_left":[0,0,0,0,0,0,0,0,0,0,0],"id":22,"left_children":[1,-1,3,-1,5,-1,7,-1,9,-1,-1],"loss_changes":[2.9526072E3,0E0,1.5234348E3,0E0,3.71709E3,0E0,7.8001514E2,0E0,2.762836E3,0E0,0E0],"parents":[2147483647,0,0,2,2,4,4,6,6,8,8],"right_children":[2,-1,4,-1,6,-1,8,-1,10,-1,-1],"split_conditions":[-3.0101708E-1,-1.1010233E-1,-2.7469975E-1,1.14264585E-1,-2.027657E-1,-1.10096775E-1,6.7425564E-2,1.14248775E-1,2.6517875E0,-1.10046364E-1,1.06230855E-1],"split_indices":[4,0,4,0,4,0,4,0,4,0,0],"split_type":[0,0,0,0,0,0,0,0,0,0,0],"sum_hessian":[9.539226E3,1.9377136E3,7.6015117E3,1.6162812E3,5.9852305E3,1.9123087E3,4.0729219E3,1.5651046E3,2.5078174E3,9.500518E2,1.5577655E3],"tree_param":{"num_deleted":"0","num_feature":"385","num_nodes":"11","size_leaf_vector":"1"}},{"base_weights":[7.7642077E-3,-1.9634192E-1,1.055903E-1,-2.0815867E-1,-1.18111074E-1,-7.030057E-1,-2.062711E-1,-9.248199E-2,-3.576573E-1,4.331267E-2,-7.745961E-1,-6.4070874E-1,-2.043163E-1,-5.5029225E-2,-3.149917E-1,-9.0912175E-1,-2.3052205E-1,-2.890568E-1,-9.115962E-1,-7.9173505E-1,6.297792E-2,1.2030537E-1,-2.0676164E-1,8.301787E-2,-9.228478E-2,-4.7068354E-1,-1.6308337E-1,3.618507E-2,-1.0224719E-1,6.6675E-2,-2.7486292E-1,-7.7979974E-2,2.3695475E-1,9.542438E-4,-1.01365045E-1,-3.82797E-1,-9.162599E-1,5.021245E-1,-6.748642E-2,1.750811E-1,-7.363434E-2,-5.655575E-1,-2.0506729E-1,5.901007E-4,2.6055387E-1,5.82311E-1,-1.00981645E-1,-9.984651E-2,-3.4162134E-1,6.143086E-2,-1.9604312E-1,6.479481E-2,-3.0601904E-1,5.0846387E-2,-4.0345513E-3,-7.668814E-2,-2.9846644E-3,-2.2815516E-2,-1.01630226E-1,8.805658E-3,6.763161E-2,2.9012704E-2,-1.2690986E-2,1.5206495E-2,-6.5252654E-2,-5.6149013E-2,-2.034028E-2,5.986008E-3,-6.082501E-2,2.987603E-2,-6.3543744E-2,7.61288E-2,-4.840959E-4,-8.979967E-3,-5.7358194E-2,-9.4432645E-2,-2.3447827E-2,5.6238312E-2,-2.2954637E-2,5.29489E-2,-3.3776257E-2],"categories":[],"categories_nodes":[],"categories_segments":[],"categories_sizes":[],"default_left":[0,0,0,0,0,0,0,0,0,0,0,0,0,0,0,0,0,0,0,0,0,0,0,0,0,0,0,0,0,0,0,0,0,0,0,0,0,0,0,0,0,0,0,0,0,0,0,0,0,0,0,0,0,0,0,0,0,0,0,0,0,0,0,0,0,0,0,0,0,0,0,0,0,0,0,0,0,0,0,0,0],"id":23,"left_children":[1,3,-1,5,7,9,11,13,15,-1,17,19,21,23,25,27,29,31,33,35,37,39,41,43,45,47,49,-1,-1,-1,51,-1,53,-1,-1,55,57,59,-1,61,-1,63,65,67,69,71,73,-1,75,-1,77,-1,79,-1,-1,-1,-1,-1,-1,-1,-1,-1,-1,-1,-1,-1,-1,-1,-1,-1,-1,-1,-1,-1,-1,-1,-1,-1,-1,-1,-1],"loss_changes":[1.8765825E3,6.762787E0,0E0,5.8118286E0,5.8963623E0,2.2728004E0,5.2655945E0,7.2646766E0,6.3104506E0,0E0,1.2508135E0,3.0252066E0,5.04776E0,3.8604765E0,2.895646E0,2.8310604E0,3.243318E0,1.8559978E0,1.6351337E0,8.2676697E-1,2.241927E0,2.378463E0,3.702179E0,2.33737E0,3.5226035E0,3.8505373E0,1.7895489E0,0E0,0E0,0E0,2.3258576E0,0E0,3.135224E-1,0E0,0E0,9.4166565E-1,9.389591E-1,2.4736679E-1,0E0,1.63038E0,0E0,1.9060793E0,3.5952148E0,4.0090547E0,1.9235573E0,8.088949E-1,3.0333214E0,0E0,3.0696802E0,0E0,1.7362809E0,0E0,2.0953674E0,0E0,0E0,0E0,0E0,0E0,0E0,0E0,0E0,0E0,0E0,0E0,0E0,0E0,0E0,0E0,0E0,0E0,0E0,0E0,0E0,0E0,0E0,0E0,0E0,0E0,0E0,0E0,0E0],"parents":[2147483647,0,0,1,1,3,3,4,4,5,5,6,6,7,7,8,8,10,10,11,11,12,12,13,13,14,14,15,15,16,16,17,17,18,18,19,19,20,20,21,21,22,22,23,23,24,24,25,25,26,26,30,30,32,32,35,35,36,36,37,37,39,39,41,41,42,42,43,43,44,44,45,45,46,46,48,48,50,50,52,52],"right_children":[2,4,-1,6,8,10,12,14,16,-1,18,20,22,24,26,28,30,32,34,36,38,40,42,44,46,48,50,-1,-1,-1,52,-1,54,-1,-1,56,58,60,-1,62,-1,64,66,68,70,72,74,-1,76,-1,78,-1,80,-1,-1,-1,-1,-1,-1,-1,-1,-1,-1,-1,-1,-1,-1,-1,-1,-1,-1,-1,-1,-1,-1,-1,-1,-1,-1,-1,-1],"split_conditions":[4.352603E0,1.3773122E0,1.055903E-1,2.00001E0,1.3109717E0,2.00001E0,2.00001E0,1.8584887E-2,-8.8204485E-1,4.331267E-2,2.00001E0,1.0876182E0,2.00001E0,-7.3064995E-1,4.655353E-1,2.00001E0,2.00001E0,-1.5376763E-1,-4.1076842E-1,2.00001E0,2.1786354E-2,1.3721061E0,2.00001E0,3.909962E-1,2.00001E0,-4.228009E-1,2.00001E0,3.618507E-2,-1.0224719E-1,6.6675E-2,2.00001E0,-7.7979974E-2,-1.3736728E-1,9.542438E-4,-1.01365045E-1,-2.605234E-1,-1.2050154E0,-4.353638E-1,-6.748642E-2,3.7633947E-1,-7.363434E-2,-1.519628E0,2.00001E0,6.296477E-2,-7.5495493E-1,-1.9289318E-1,-7.81386E-2,-9.984651E-2,2.00001E0,6.143086E-2,2.00001E0,6.479481E-2,2.00001E0,5.0846387E-2,-4.0345513E-3,-7.668814E-2,-2.9846644E-3,-2.2815516E-2,-1.01630226E-1,8.805658E-3,6.763161E-2,2.9012704E-2,-1.2690986E-2,1.5206495E-2,-6.5252654E-2,-5.6149013E-2,-2.034028E-2,5.986008E-3,-6.082501E-2,2.987603E-2,-6.3543744E-2,7.61288E-2,-4.840959E-4,-8.979967E-3,-5.7358194E-2,-9.4432645E-2,-2.3447827E-2,5.6238312E-2,-2.2954637E-2,5.29489E-2,-3.3776257E-2],"split_indices":[10,0,0,289,7,40,66,9,5,0,17,0,235,7,6,378,324,9,8,18,5,6,112,5,261,5,60,0,0,0,154,0,9,0,0,8,6,5,0,5,0,0,333,5,7,9,9,0,17,0,121,0,285,0,0,0,0,0,0,0,0,0,0,0,0,0,0,0,0,0,0,0,0,0,0,0,0,0,0,0,0],"split_type":[0,0,0,0,0,0,0,0,0,0,0,0,0,0,0,0,0,0,0,0,0,0,0,0,0,0,0,0,0,0,0,0,0,0,0,0,0,0,0,0,0,0,0,0,0,0,0,0,0,0,0,0,0,0,0,0,0,0,0,0,0,0,0,0,0,0,0,0,0,0,0,0,0,0,0,0,0,0,0,0,0],"sum_hessian":[8.769915E3,7.3411675E3,1.4287473E3,6.3763584E3,9.648091E2,2.281845E1,6.35354E3,8.728128E2,9.199628E1,1.0532602E0,2.1765192E1,2.6996603E1,6.3265435E3,7.481344E2,1.2467843E2,1.6083097E1,7.591318E1,5.4741755E0,1.6291016E1,2.2123335E1,4.8732686E0,4.6940586E1,6.2796025E3,1.587335E2,5.894009E2,6.0536118E1,6.414231E1,1.1373951E0,1.4945702E1,2.913773E0,7.2999405E1,2.5824242E0,2.8917513E0,1.7152964E0,1.457572E1,6.11519E0,1.6008144E1,3.2552736E0,1.6179948E0,4.4867306E1,2.0732791E0,2.7950907E1,6.251652E3,1.0908842E2,4.9645084E1,6.6623306E0,5.827386E2,1.0571041E1,4.9965076E1,1.8914816E0,6.225083E1,1.7375724E0,7.126183E1,1.0399237E0,1.8518276E0,2.3668184E0,3.7483716E0,2.4483874E0,1.3559757E1,1.4097342E0,1.8455395E0,3.251843E1,1.2348877E1,2.9403346E0,2.5010572E1,2.7495945E1,6.224156E3,1.0023256E2,8.855857E0,4.825402E1,1.3910654E0,4.8786354E0,1.7836951E0,5.704318E2,1.2306718E1,6.3622456E0,4.3602833E1,1.965738E0,6.028509E1,2.034422E0,6.922741E1],"tree_param":{"num_deleted":"0","num_feature":"385","num_nodes":"81","size_leaf_vector":"1"}},{"base_weights":[1.0475245E-3,-1.0885397E-1,2.7737373E-1,1.12940274E-1,3.610515E-2,-1.0884825E-1,5.73134E-1,1.1293824E-1,1.9412209E-1,-1.08794026E-1,1.0501523E-1],"categories":[],"categories_nodes":[],"categories_segments":[],"categories_sizes":[],"default_left":[0,0,0,0,0,0,0,0,0,0,0],"id":24,"left_children":[1,-1,3,-1,5,-1,7,-1,9,-1,-1],"loss_changes":[2.5850403E3,0E0,1.407876E3,0E0,3.2247556E3,0E0,7.616575E2,0E0,2.3613035E3,0E0,0E0],"parents":[2147483647,0,0,2,2,4,4,6,6,8,8],"right_children":[2,-1,4,-1,6,-1,8,-1,10,-1,-1],"split_conditions":[-3.0101708E-1,-1.0885397E-1,-2.7469975E-1,1.12940274E-1,-2.027657E-1,-1.0884825E-1,6.7425564E-2,1.1293824E-1,2.6517875E0,-1.08794026E-1,1.0501523E-1],"split_indices":[4,0,4,0,4,0,4,0,4,0,0],"split_type":[0,0,0,0,0,0,0,0,0,0,0],"sum_hessian":[8.583846E3,1.7359294E3,6.847916E3,1.5103838E3,5.337532E3,1.7247406E3,3.6127917E3,1.4632726E3,2.1495193E3,8.604967E2,1.2890226E3],"tree_param":{"num_deleted":"0","num_feature":"385","num_nodes":"11","size_leaf_vector":"1"}},{"base_weights":[1.095929E-3,-1.07927E-1,2.7345875E-1,1.11553445E-1,3.0095074E-2,-1.07924245E-1,5.6517255E-1,1.1154218E-1,1.9032152E-1,-1.0786052E-1,1.0449969E-1],"categories":[],"categories_nodes":[],"categories_segments":[],"categories_sizes":[],"default_left":[0,0,0,0,0,0,0,0,0,0,0],"id":25,"left_children":[1,-1,3,-1,5,-1,7,-1,9,-1,-1],"loss_changes":[2.309039E3,0E0,1.2843047E3,0E0,2.8872341E3,0E0,6.7659827E2,0E0,2.1191252E3,0E0,0E0],"parents":[2147483647,0,0,2,2,4,4,6,6,8,8],"right_children":[2,-1,4,-1,6,-1,8,-1,10,-1,-1],"split_conditions":[-3.0101708E-1,-1.07927E-1,-2.7469975E-1,1.11553445E-1,-2.027657E-1,-1.07924245E-1,6.7425564E-2,1.1154218E-1,2.6517875E0,-1.0786052E-1,1.0449969E-1],"split_indices":[4,0,4,0,4,0,4,0,4,0,0],"split_type":[0,0,0,0,0,0,0,0,0,0,0],"sum_hessian":[7.8451587E3,1.5789734E3,6.2661855E3,1.4041224E3,4.862063E3,1.5817395E3,3.2803235E3,1.3283881E3,1.9519354E3,7.854801E2,1.1664553E3],"tree_param":{"num_deleted":"0","num_feature":"385","num_nodes":"11","size_leaf_vector":"1"}},{"base_weights":[1.0194431E-2,-1.0710279E-1,2.8039208E-1,1.103208E-1,3.9047908E-2,-1.07101195E-1,5.6631273E-1,1.1030372E-1,1.9442461E-1,-1.0703335E-1,1.040357E-1],"categories":[],"categories_nodes":[],"categories_segments":[],"categories_sizes":[],"default_left":[0,0,0,0,0,0,0,0,0,0,0],"id":26,"left_children":[1,-1,3,-1,5,-1,7,-1,9,-1,-1],"loss_changes":[2.0953748E3,0E0,1.1394902E3,0E0,2.5981323E3,0E0,6.004811E2,0E0,1.9043948E3,0E0,0E0],"parents":[2147483647,0,0,2,2,4,4,6,6,8,8],"right_children":[2,-1,4,-1,6,-1,8,-1,10,-1,-1],"split_conditions":[-3.0101708E-1,-1.0710279E-1,-2.7469975E-1,1.103208E-1,-2.027657E-1,-1.07101195E-1,6.7425564E-2,1.1030372E-1,2.6517875E0,-1.0703335E-1,1.040357E-1],"split_indices":[4,0,4,0,4,0,4,0,4,0,0],"split_type":[0,0,0,0,0,0,0,0,0,0,0],"sum_hessian":[7.170383E3,1.4330259E3,5.737357E3,1.3003832E3,4.4369736E3,1.4284989E3,3.0084749E3,1.2305408E3,1.7779341E3,7.124624E2,1.0654717E3],"tree_param":{"num_deleted":"0","num_feature":"385","num_nodes":"11","size_leaf_vector":"1"}},{"base_weights":[5.6832605E-3,-1.06367186E-1,2.7482116E-1,1.0922199E-1,3.7322488E-2,-1.063661E-1,5.620952E-1,1.0921647E-1,1.9010511E-1,-1.0628859E-1,1.0361761E-1],"categories":[],"categories_nodes":[],"categories_segments":[],"categories_sizes":[],"default_left":[0,0,0,0,0,0,0,0,0,0,0],"id":27,"left_children":[1,-1,3,-1,5,-1,7,-1,9,-1,-1],"loss_changes":[1.8798546E3,0E0,1.01300037E3,0E0,2.3373838E3,0E0,5.3999927E2,0E0,1.7090494E3,0E0,0E0],"parents":[2147483647,0,0,2,2,4,4,6,6,8,8],"right_children":[2,-1,4,-1,6,-1,8,-1,10,-1,-1],"split_conditions":[-3.0101708E-1,-1.06367186E-1,-2.7469975E-1,1.0922199E-1,-2.027657E-1,-1.063661E-1,6.7425564E-2,1.0921647E-1,2.6517875E0,-1.0628859E-1,1.0361761E-1],"split_indices":[4,0,4,0,4,0,4,0,4,0,0],"split_type":[0,0,0,0,0,0,0,0,0,0,0],"sum_hessian":[6.529703E3,1.3123685E3,5.2173345E3,1.1738159E3,4.0435186E3,1.3048632E3,2.7386553E3,1.1285647E3,1.6100906E3,6.488775E2,9.6121313E2],"tree_param":{"num_deleted":"0","num_feature":"385","num_nodes":"11","size_leaf_vector":"1"}},{"base_weights":[5.140486E-3,-1.0570969E-1,2.7167347E-1,1.0825085E-1,3.525918E-2,-1.0570784E-1,5.586104E-1,1.08240545E-1,1.967291E-1,-1.0562255E-1,1.03241555E-1],"categories":[],"categories_nodes":[],"categories_segments":[],"categories_sizes":[],"default_left":[0,0,0,0,0,0,0,0,0,0,0],"id":28,"left_children":[1,-1,3,-1,5,-1,7,-1,9,-1,-1],"loss_changes":[1.6802944E3,0E0,9.094337E2,0E0,2.1011636E3,0E0,4.7079565E2,0E0,1.5411139E3,0E0,0E0],"parents":[2147483647,0,0,2,2,4,4,6,6,8,8],"right_children":[2,-1,4,-1,6,-1,8,-1,10,-1,-1],"split_conditions":[-3.0101708E-1,-1.0570969E-1,-2.7469975E-1,1.0825085E-1,-2.027657E-1,-1.0570784E-1,6.7425564E-2,1.08240545E-1,2.6517875E0,-1.0562255E-1,1.03241555E-1],"split_indices":[4,0,4,0,4,0,4,0,4,0,0],"split_type":[0,0,0,0,0,0,0,0,0,0,0],"sum_hessian":[5.932879E3,1.1894586E3,4.74342E3,1.070009E3,3.6734111E3,1.1895548E3,2.4838562E3,1.01407306E3,1.4697832E3,5.8796954E2,8.8181366E2],"tree_param":{"num_deleted":"0","num_feature":"385","num_nodes":"11","size_leaf_vector":"1"}},{"base_weights":[3.9111E-3,-1.0512065E-1,2.691099E-1,1.0738893E-1,3.407993E-2,-1.0511813E-1,5.543122E-1,1.0737777E-1,1.8734346E-1,-1.0502622E-1,1.0289883E-1],"categories":[],"categories_nodes":[],"categories_segments":[],"categories_sizes":[],"default_left":[0,0,0,0,0,0,0,0,0,0,0],"id":29,"left_children":[1,-1,3,-1,5,-1,7,-1,9,-1,-1],"loss_changes":[1.5161388E3,0E0,8.189717E2,0E0,1.8932607E3,0E0,4.3189667E2,0E0,1.3859653E3,0E0,0E0],"parents":[2147483647,0,0,2,2,4,4,6,6,8,8],"right_children":[2,-1,4,-1,6,-1,8,-1,10,-1,-1],"split_conditions":[-3.0101708E-1,-1.0512065E-1,-2.7469975E-1,1.0738893E-1,-2.027657E-1,-1.0511813E-1,6.7425564E-2,1.0737777E-1,2.6517875E0,-1.0502622E-1,1.0289883E-1],"split_indices":[4,0,4,0,4,0,4,0,4,0,0],"split_type":[0,0,0,0,0,0,0,0,0,0,0],"sum_hessian":[5.416333E3,1.0873296E3,4.3290034E3,9.7768567E2,3.3513179E3,1.0856056E3,2.2657122E3,9.3716907E2,1.3285432E3,5.376711E2,7.908721E2],"tree_param":{"num_deleted":"0","num_feature":"385","num_nodes":"11","size_leaf_vector":"1"}},{"base_weights":[1.5350409E-3,-1.04590155E-1,2.6467296E-1,1.0661735E-1,3.352316E-2,-1.0458833E-1,5.5048245E-1,1.06606185E-1,1.9391876E-1,-1.0448811E-1,1.0259204E-1],"categories":[],"categories_nodes":[],"categories_segments":[],"categories_sizes":[],"default_left":[0,0,0,0,0,0,0,0,0,0,0],"id":30,"left_children":[1,-1,3,-1,5,-1,7,-1,9,-1,-1],"loss_changes":[1.3515935E3,0E0,7.260664E2,0E0,1.6985837E3,0E0,3.781678E2,0E0,1.2564033E3,0E0,0E0],"parents":[2147483647,0,0,2,2,4,4,6,6,8,8],"right_children":[2,-1,4,-1,6,-1,8,-1,10,-1,-1],"split_conditions":[-3.0101708E-1,-1.04590155E-1,-2.7469975E-1,1.0661735E-1,-2.027657E-1,-1.0458833E-1,6.7425564E-2,1.06606185E-1,2.6517875E0,-1.0448811E-1,1.0259204E-1],"split_indices":[4,0,4,0,4,0,4,0,4,0,0],"split_type":[0,0,0,0,0,0,0,0,0,0,0],"sum_hessian":[4.9018203E3,9.8359314E2,3.9182273E3,8.7625256E2,3.0419746E3,9.847669E2,2.0572078E3,8.402476E2,1.2169602E3,4.8884454E2,7.2811566E2],"tree_param":{"num_deleted":"0","num_feature":"385","num_nodes":"11","size_leaf_vector":"1"}},{"base_weights":[1.0804372E-3,-1.04113296E-1,2.6377025E-1,1.0592123E-1,3.1617783E-2,-1.0411245E-1,5.4634637E-1,1.05910026E-1,1.9017673E-1,-1.0400113E-1,1.02310576E-1],"categories":[],"categories_nodes":[],"categories_segments":[],"categories_sizes":[],"default_left":[0,0,0,0,0,0,0,0,0,0,0],"id":31,"left_children":[1,-1,3,-1,5,-1,7,-1,9,-1,-1],"loss_changes":[1.2204808E3,0E0,6.574593E2,0E0,1.5229801E3,0E0,3.401806E2,0E0,1.1292706E3,0E0,0E0],"parents":[2147483647,0,0,2,2,4,4,6,6,8,8],"right_children":[2,-1,4,-1,6,-1,8,-1,10,-1,-1],"split_conditions":[-3.0101708E-1,-1.04113296E-1,-2.7469975E-1,1.0592123E-1,-2.027657E-1,-1.0411245E-1,6.7425564E-2,1.05910026E-1,2.6517875E0,-1.0400113E-1,1.02310576E-1],"split_indices":[4,0,4,0,4,0,4,0,4,0,0],"split_type":[0,0,0,0,0,0,0,0,0,0,0],"sum_hessian":[4.4559053E3,8.9642096E2,3.5594846E3,8.0334796E2,2.7561365E3,8.933303E2,1.8628062E3,7.627508E2,1.1000554E3,4.440179E2,6.560375E2],"tree_param":{"num_deleted":"0","num_feature":"385","num_nodes":"11","size_leaf_vector":"1"}},{"base_weights":[7.31677E-3,-1.6784848E-1,1.0205617E-1,-5.9893966E-1,-1.6596471E-1,-9.14759E-2,-1.1999421E-1,-5.8998865E-1,-1.6435437E-1,2.0842452E-1,-6.7158684E-2,-6.1112225E-2,-8.1814545E-1,1.12893604E-1,-1.6637671E-1,4.3213516E-1,-2.0864353E-2,-3.567817E-1,2.8023243E-2,-9.726611E-3,-8.9944795E-2,2.3920831E-1,-3.4032327E-1,-5.2520716E-1,-1.6464035E-1,5.3542502E-2,1.4737742E-2,1.20850826E-4,-5.325147E-2,4.35107E-1,4.6154294E-2,-6.569865E-1,3.5904843E-2,-7.059762E-1,-8.343161E-2,-1.7318016E-1,-1.07467405E-1,5.056976E-2,3.6443255E-3,-5.563554E-2,2.905565E-2,-7.374361E-2,-1.897297E-2,-2.2212325E-2,-8.1849344E-2,-5.9025355E-2,1.9858113E-2,9.971806E-3,-1.7541112E-2,-5.0731557E-3,-1.6845433E-2],"categories":[],"categories_nodes":[],"categories_segments":[],"categories_sizes":[],"default_left":[0,0,0,0,0,0,0,0,0,0,0,0,0,0,0,0,0,0,0,0,0,0,0,0,0,0,0,0,0,0,0,0,0,0,0,0,0,0,0,0,0,0,0,0,0,0,0,0,0,0,0],"id":32,"left_children":[1,3,-1,5,7,-1,9,11,13,15,-1,17,19,21,23,25,-1,27,-1,-1,-1,29,31,33,35,-1,-1,-1,-1,37,39,41,-1,43,45,47,49,-1,-1,-1,-1,-1,-1,-1,-1,-1,-1,-1,-1,-1,-1],"loss_changes":[7.2133746E2,2.7146225E0,0E0,2.112702E0,2.259781E0,0E0,1.4061664E0,1.4791136E0,1.947464E0,5.701345E-1,0E0,5.9450597E-1,4.2665148E-1,1.5415349E0,2.0414734E0,2.9148877E-2,0E0,1.9349852E-1,0E0,0E0,0E0,7.564714E-1,1.5584583E0,1.2180786E0,1.6416016E0,0E0,0E0,0E0,0E0,2.6504302E-1,1.8492585E0,2.789259E-2,0E0,4.286604E-1,9.429436E-1,1.8176651E0,1.5296006E0,0E0,0E0,0E0,0E0,0E0,0E0,0E0,0E0,0E0,0E0,0E0,0E0,0E0,0E0],"parents":[2147483647,0,0,1,1,3,3,4,4,6,6,7,7,8,8,9,9,11,11,12,12,13,13,14,14,15,15,17,17,21,21,22,22,23,23,24,24,29,29,30,30,31,31,33,33,34,34,35,35,36,36],"right_children":[2,4,-1,6,8,-1,10,12,14,16,-1,18,20,22,24,26,-1,28,-1,-1,-1,30,32,34,36,-1,-1,-1,-1,38,40,42,-1,44,46,48,50,-1,-1,-1,-1,-1,-1,-1,-1,-1,-1,-1,-1,-1,-1],"split_conditions":[4.352603E0,2.00001E0,1.0205617E-1,5.025405E-1,2.00001E0,-9.14759E-2,1.1078513E0,-9.0252113E-1,2.00001E0,-2.023259E-1,-6.7158684E-2,-1.1484648E0,-4.0917498E-1,6.530772E-1,2.00001E0,-3.9378402E-1,-2.0864353E-2,-2.1600492E-1,2.8023243E-2,-9.726611E-3,-8.9944795E-2,-4.7528532E-1,1.1245302E0,9.184712E-1,1.3773122E0,5.3542502E-2,1.4737742E-2,1.20850826E-4,-5.325147E-2,7.368911E-2,5.053769E-1,-1.4913164E-1,3.5904843E-2,2.00001E0,-1.5976037E-1,2.00001E0,-6.131212E-3,5.056976E-2,3.6443255E-3,-5.563554E-2,2.905565E-2,-7.374361E-2,-1.897297E-2,-2.2212325E-2,-8.1849344E-2,-5.9025355E-2,1.9858113E-2,9.971806E-3,-1.7541112E-2,-5.0731557E-3,-1.6845433E-2],"split_indices":[10,295,0,7,289,0,7,7,124,9,0,7,8,0,315,8,0,0,0,0,0,6,5,6,0,0,0,0,0,0,6,8,0,18,9,235,5,0,0,0,0,0,0,0,0,0,0,0,0,0,0],"split_type":[0,0,0,0,0,0,0,0,0,0,0,0,0,0,0,0,0,0,0,0,0,0,0,0,0,0,0,0,0,0,0,0,0,0,0,0,0,0,0,0,0,0,0,0,0,0,0,0,0,0,0],"sum_hessian":[4.0622444E3,3.464203E3,5.9804156E2,1.3693011E1,3.4505098E3,7.7034016E0,5.9896097E0,1.16721945E1,3.4388376E3,4.144256E0,1.8453534E0,3.8999076E0,7.772287E0,2.4505306E1,3.4143323E3,2.6738868E0,1.4703693E0,2.065536E0,1.8343717E0,1.0103377E0,6.761949E0,1.9533407E1,4.971898E0,1.4990361E1,3.3993418E3,1.3161861E0,1.3577008E0,1.0070901E0,1.0584459E0,9.072954E0,1.0460454E1,3.4640443E0,1.5078539E0,1.0213204E1,4.777157E0,2.9558093E3,4.4353256E2,7.480002E0,1.5929519E0,2.6503403E0,7.810114E0,2.4619374E0,1.0021069E0,2.4880555E0,7.7251487E0,1.3171053E0,3.4600515E0,2.3613565E1,2.9321958E3,2.3072345E2,2.1280911E2],"tree_param":{"num_deleted":"0","num_feature":"385","num_nodes":"51","size_leaf_vector":"1"}},{"base_weights":[4.4079935E-3,-1.0361735E-1,2.6617077E-1,1.0539501E-1,2.606721E-2,-1.0361618E-1,5.383412E-1,1.0538067E-1,1.4629303E-1,-1.0349184E-1,1.0182226E-1],"categories":[],"categories_nodes":[],"categories_segments":[],"categories_sizes":[],"default_left":[0,0,0,0,0,0,0,0,0,0,0],"id":33,"left_children":[1,-1,3,-1,5,-1,7,-1,9,-1,-1],"loss_changes":[1.0897797E3,0E0,6.046257E2,0E0,1.334283E3,0E0,3.3414267E2,0E0,9.6996765E2,0E0,0E0],"parents":[2147483647,0,0,2,2,4,4,6,6,8,8],"right_children":[2,-1,4,-1,6,-1,8,-1,10,-1,-1],"split_conditions":[-3.0101708E-1,-1.0361735E-1,-2.7469975E-1,1.0539501E-1,-2.027657E-1,-1.0361618E-1,6.7425564E-2,1.0538067E-1,2.6517875E0,-1.0349184E-1,1.0182226E-1],"split_indices":[4,0,4,0,4,0,4,0,4,0,0],"split_type":[0,0,0,0,0,0,0,0,0,0,0],"sum_hessian":[3.9988599E3,8.031503E2,3.1957095E3,7.456953E2,2.4500142E3,7.9679407E2,1.6532201E3,7.1346606E2,9.39754E2,3.990161E2,5.407379E2],"tree_param":{"num_deleted":"0","num_feature":"385","num_nodes":"11","size_leaf_vector":"1"}},{"base_weights":[1.417657E-3,-1.5851408E-1,1.01609245E-1,-1.5591548E-1,-4.0533113E-1,-4.7215372E-1,-1.5416884E-1,4.4881053E-2,-4.561929E-1,-3.4634516E-2,-6.167179E-1,1.0918888E-1,-1.5604362E-1,-1.4256714E-1,-5.529165E-1,1.4988437E-1,-2.8986925E-2,-9.0466425E-2,-8.2490754E-1,-6.672477E-2,2.1102677E-1,-4.757588E-1,-1.5452741E-1,-4.6264678E-1,1.9478722E-1,-2.5246698E-1,-7.225056E-1,-1.572608E-2,3.4909498E-2,-2.7165115E-1,2.6066953E-2,-1.6710298E-2,-8.984058E-2,2.6409212E-1,-2.9861733E-2,2.3027075E-2,-5.8675736E-1,-4.583659E-1,-1.5301289E-1,-1.1050989E-2,-5.3069407E-1,5.182859E-2,-2.950558E-2,-4.034813E-1,3.3432763E-2,-9.273897E-2,-2.2001572E-1,-5.4402597E-2,7.6735388E-3,-9.739085E-3,3.2523874E-2,3.427575E-2,-2.4383962E-2,-6.8805896E-2,1.7751431E-2,-6.3582614E-2,1.9147067E-3,-1.8223876E-2,-1.3882048E-2,-1.1117557E-2,-6.461921E-2,4.0034447E-3,-5.7780355E-2,2.5603393E-2,-5.188748E-2],"categories":[],"categories_nodes":[],"categories_segments":[],"categories_sizes":[],"default_left":[0,0,0,0,0,0,0,0,0,0,0,0,0,0,0,0,0,0,0,0,0,0,0,0,0,0,0,0,0,0,0,0,0,0,0,0,0,0,0,0,0,0,0,0,0,0,0,0,0,0,0,0,0,0,0,0,0,0,0,0,0,0,0,0,0],"id":34,"left_children":[1,3,-1,5,7,9,11,-1,13,15,17,19,21,23,25,27,-1,29,31,-1,33,35,37,39,41,43,45,-1,-1,47,-1,-1,-1,49,-1,51,53,55,57,-1,59,-1,-1,61,-1,-1,63,-1,-1,-1,-1,-1,-1,-1,-1,-1,-1,-1,-1,-1,-1,-1,-1,-1,-1],"loss_changes":[5.871419E2,1.9414215E0,0E0,1.6364899E0,1.5922551E0,1.0230811E0,1.5372696E0,0E0,8.506212E-1,2.8648922E-1,1.2787042E0,1.9082181E0,1.4087067E0,1.0154517E0,9.9307585E-1,2.7849945E-1,0E0,3.6503497E-1,2.7183676E-1,0E0,6.338204E-1,7.859113E-1,1.3309631E0,5.382085E-2,9.255705E-1,1.0086979E0,1.2588358E0,0E0,0E0,3.776882E-1,0E0,0E0,0E0,4.5420027E-1,0E0,3.8236672E-1,1.0085752E0,1.2494118E0,1.2319717E0,0E0,1.06007814E-1,0E0,0E0,6.645019E-1,0E0,0E0,9.049028E-1,0E0,0E0,0E0,0E0,0E0,0E0,0E0,0E0,0E0,0E0,0E0,0E0,0E0,0E0,0E0,0E0,0E0,0E0],"parents":[2147483647,0,0,1,1,3,3,4,4,5,5,6,6,8,8,9,9,10,10,11,11,12,12,13,13,14,14,15,15,17,17,18,18,20,20,21,21,22,22,23,23,24,24,25,25,26,26,29,29,33,33,35,35,36,36,37,37,38,38,40,40,43,43,46,46],"right_children":[2,4,-1,6,8,10,12,-1,14,16,18,20,22,24,26,28,-1,30,32,-1,34,36,38,40,42,44,46,-1,-1,48,-1,-1,-1,50,-1,52,54,56,58,-1,60,-1,-1,62,-1,-1,64,-1,-1,-1,-1,-1,-1,-1,-1,-1,-1,-1,-1,-1,-1,-1,-1,-1,-1],"split_conditions":[4.352603E0,1.6949713E0,1.01609245E-1,2.00001E0,2.00001E0,2.00001E0,2.00001E0,4.4881053E-2,2.00001E0,-2.2897077E-1,-7.95393E-1,-1.0288737E0,2.00001E0,3.446126E-1,-5.458818E-1,-2.1834251E-1,-2.8986925E-2,-9.4023997E-1,-1.3524991E0,-6.672477E-2,1.2546527E0,-1.0850871E0,2.00001E0,-1.2700201E0,6.9270223E-1,-6.2346804E-1,1.1987603E0,-1.572608E-2,3.4909498E-2,1.520244E-1,2.6066953E-2,-1.6710298E-2,-8.984058E-2,-3.6617127E-1,-2.9861733E-2,-3.9940262E-1,1.6670063E0,-3.1045172E-2,-5.8362645E-1,-1.1050989E-2,-3.1096175E-1,5.182859E-2,-2.950558E-2,2.00001E0,3.3432763E-2,-9.273897E-2,2.00001E0,-5.4402597E-2,7.6735388E-3,-9.739085E-3,3.2523874E-2,3.427575E-2,-2.4383962E-2,-6.8805896E-2,1.7751431E-2,-6.3582614E-2,1.9147067E-3,-1.8223876E-2,-1.3882048E-2,-1.1117557E-2,-6.461921E-2,4.0034447E-3,-5.7780355E-2,2.5603393E-2,-5.188748E-2],"split_indices":[10,3,0,55,61,14,340,0,18,3,0,6,333,6,6,8,0,0,6,0,3,0,119,6,6,6,6,0,0,3,0,0,0,8,0,8,0,8,6,0,8,0,0,17,0,0,16,0,0,0,0,0,0,0,0,0,0,0,0,0,0,0,0,0,0],"split_type":[0,0,0,0,0,0,0,0,0,0,0,0,0,0,0,0,0,0,0,0,0,0,0,0,0,0,0,0,0,0,0,0,0,0,0,0,0,0,0,0,0,0,0,0,0,0,0,0,0,0,0,0,0,0,0,0,0,0,0,0,0,0,0,0,0],"sum_hessian":[3.6161157E3,3.1244824E3,4.9163315E2,3.093544E3,3.0938524E1,1.5513011E1,3.078031E3,1.2990448E0,2.9639479E1,4.160614E0,1.1352397E1,2.1352297E1,3.0566787E3,7.569473E0,2.2070005E1,2.6544034E0,1.5062103E0,3.6246717E0,7.727725E0,1.8320733E0,1.9520224E1,1.2951164E1,3.0437275E3,3.6936061E0,3.8758667E0,8.860735E0,1.3209271E1,1.1271427E0,1.5272608E0,2.5402684E0,1.0844033E0,1.1056639E0,6.6220613E0,1.8115778E1,1.4044467E0,2.5017571E0,1.0449407E1,1.3600472E1,3.030127E3,1.0231156E0,2.6704905E0,2.2993083E0,1.5765582E0,7.295581E0,1.565154E0,8.7826605E0,4.4266105E0,1.1105006E0,1.4297677E0,2.535256E0,1.5580522E1,1.0087756E0,1.4929817E0,9.314519E0,1.1348877E0,9.673814E0,3.9266582E0,9.8660626E2,2.0435208E3,1.0001751E0,1.6703154E0,2.2757905E0,5.0197906E0,1.7624757E0,2.6641345E0],"tree_param":{"num_deleted":"0","num_feature":"385","num_nodes":"65","size_leaf_vector":"1"}},{"base_weights":[7.394688E-3,-1.03180185E-1,2.6746252E-1,1.04904644E-1,2.0851683E-2,-1.031783E-1,5.332709E-1,1.04896486E-1,1.0945509E-1,-1.03039026E-1,1.0141461E-1],"categories":[],"categories_nodes":[],"categories_segments":[],"categories_sizes":[],"default_left":[0,0,0,0,0,0,0,0,0,0,0],"id":35,"left_children":[1,-1,3,-1,5,-1,7,-1,9,-1,-1],"loss_changes":[9.680305E2,0E0,5.5216907E2,0E0,1.1757406E3,0E0,3.2030405E2,0E0,8.3201996E2,0E0,0E0],"parents":[2147483647,0,0,2,2,4,4,6,6,8,8],"right_children":[2,-1,4,-1,6,-1,8,-1,10,-1,-1],"split_conditions":[-3.0101708E-1,-1.03180185E-1,-2.7469975E-1,1.04904644E-1,-2.027657E-1,-1.031783E-1,6.7425564E-2,1.04896486E-1,2.6517875E0,-1.03039026E-1,1.0141461E-1],"split_indices":[4,0,4,0,4,0,4,0,4,0,0],"split_type":[0,0,0,0,0,0,0,0,0,0,0],"sum_hessian":[3.5798071E3,7.159597E2,2.8638474E3,6.861087E2,2.1777385E3,7.126884E2,1.4650503E3,6.602233E2,8.048269E2,3.56068E2,4.487589E2],"tree_param":{"num_deleted":"0","num_feature":"385","num_nodes":"11","size_leaf_vector":"1"}},{"base_weights":[3.250764E-3,-1.0283991E-1,2.6203448E-1,1.0438923E-1,1.247206E-2,-1.0283921E-1,5.262102E-1,1.0437124E-1,1.06728666E-1,-1.02685705E-1,1.0123211E-1],"categories":[],"categories_nodes":[],"categories_segments":[],"categories_sizes":[],"default_left":[0,0,0,0,0,0,0,0,0,0,0],"id":36,"left_children":[1,-1,3,-1,5,-1,7,-1,9,-1,-1],"loss_changes":[8.661406E2,0E0,5.0606924E2,0E0,1.0524199E3,0E0,2.859424E2,0E0,7.493022E2,0E0,0E0],"parents":[2147483647,0,0,2,2,4,4,6,6,8,8],"right_children":[2,-1,4,-1,6,-1,8,-1,10,-1,-1],"split_conditions":[-3.0101708E-1,-1.0283991E-1,-2.7469975E-1,1.0438923E-1,-2.027657E-1,-1.0283921E-1,6.7425564E-2,1.0437124E-1,2.6517875E0,-1.02685705E-1,1.0123211E-1],"split_indices":[4,0,4,0,4,0,4,0,4,0,0],"split_type":[0,0,0,0,0,0,0,0,0,0,0],"sum_hessian":[3.242277E3,6.496103E2,2.592667E3,6.265515E2,1.9661154E3,6.493968E2,1.3167186E3,5.888201E2,7.2789844E2,3.2319788E2,4.0470056E2],"tree_param":{"num_deleted":"0","num_feature":"385","num_nodes":"11","size_leaf_vector":"1"}},{"base_weights":[6.571746E-3,-1.02531746E-1,2.6492357E-1,1.0391944E-1,2.0273704E-2,-1.025299E-1,5.308804E-1,1.0390778E-1,1.03126764E-1,-1.0236093E-1,1.01061635E-1],"categories":[],"categories_nodes":[],"categories_segments":[],"categories_sizes":[],"default_left":[0,0,0,0,0,0,0,0,0,0,0],"id":37,"left_children":[1,-1,3,-1,5,-1,7,-1,9,-1,-1],"loss_changes":[7.8795624E2,0E0,4.4774768E2,0E0,9.6006805E2,0E0,2.6254E2,0E0,6.7296436E2,0E0,0E0],"parents":[2147483647,0,0,2,2,4,4,6,6,8,8],"right_children":[2,-1,4,-1,6,-1,8,-1,10,-1,-1],"split_conditions":[-3.0101708E-1,-1.02531746E-1,-2.7469975E-1,1.0391944E-1,-2.027657E-1,-1.025299E-1,6.7425564E-2,1.0390778E-1,2.6517875E0,-1.0236093E-1,1.01061635E-1],"split_indices":[4,0,4,0,4,0,4,0,4,0,0],"split_type":[0,0,0,0,0,0,0,0,0,0,0],"sum_hessian":[2.9536616E3,5.9083295E2,2.3628289E3,5.665517E2,1.7962771E3,5.890558E2,1.2072213E3,5.5107794E2,6.561434E2,2.9265543E2,3.6348795E2],"tree_param":{"num_deleted":"0","num_feature":"385","num_nodes":"11","size_leaf_vector":"1"}},{"base_weights":[1.7569324E-3,-1.0225054E-1,2.5950915E-1,1.03495E-1,1.3884772E-2,-1.0224941E-1,5.2461135E-1,1.0348368E-1,1.0433382E-1,-1.0206258E-1,1.0090543E-1],"categories":[],"categories_nodes":[],"categories_segments":[],"categories_sizes":[],"default_left":[0,0,0,0,0,0,0,0,0,0,0],"id":38,"left_children":[1,-1,3,-1,5,-1,7,-1,9,-1,-1],"loss_changes":[7.051983E2,0E0,4.064616E2,0E0,8.58934E2,0E0,2.3299219E2,0E0,6.0881415E2,0E0,0E0],"parents":[2147483647,0,0,2,2,4,4,6,6,8,8],"right_children":[2,-1,4,-1,6,-1,8,-1,10,-1,-1],"split_conditions":[-3.0101708E-1,-1.0225054E-1,-2.7469975E-1,1.03495E-1,-2.027657E-1,-1.0224941E-1,6.7425564E-2,1.0348368E-1,2.6517875E0,-1.0206258E-1,1.0090543E-1],"split_indices":[4,0,4,0,4,0,4,0,4,0,0],"split_type":[0,0,0,0,0,0,0,0,0,0,0],"sum_hessian":[2.6691409E3,5.360409E2,2.1331E3,5.123591E2,1.6207408E3,5.3470416E2,1.0860367E3,4.898666E2,5.9617017E2,2.6568298E2,3.3048718E2],"tree_param":{"num_deleted":"0","num_feature":"385","num_nodes":"11","size_leaf_vector":"1"}},{"base_weights":[9.888165E-3,-1.0199314E-1,2.662152E-1,1.0311363E-1,2.336656E-2,-1.01992786E-1,5.309596E-1,1.0310576E-1,1.1084973E-1,-1.01785146E-1,1.0076094E-1],"categories":[],"categories_nodes":[],"categories_segments":[],"categories_sizes":[],"default_left":[0,0,0,0,0,0,0,0,0,0,0],"id":39,"left_children":[1,-1,3,-1,5,-1,7,-1,9,-1,-1],"loss_changes":[6.4271246E2,0E0,3.6211658E2,0E0,7.846986E2,0E0,2.0930261E2,0E0,5.504594E2,0E0,0E0],"parents":[2147483647,0,0,2,2,4,4,6,6,8,8],"right_children":[2,-1,4,-1,6,-1,8,-1,10,-1,-1],"split_conditions":[-3.0101708E-1,-1.0199314E-1,-2.7469975E-1,1.0311363E-1,-2.027657E-1,-1.01992786E-1,6.7425564E-2,1.0310576E-1,2.6517875E0,-1.01785146E-1,1.0076094E-1],"split_indices":[4,0,4,0,4,0,4,0,4,0,0],"split_type":[0,0,0,0,0,0,0,0,0,0,0],"sum_hessian":[2.4327595E3,4.8425153E2,1.9485079E3,4.6876215E2,1.4797458E3,4.839786E2,9.957672E2,4.5394165E2,5.4182556E2,2.3982997E2,3.019956E2],"tree_param":{"num_deleted":"0","num_feature":"385","num_nodes":"11","size_leaf_vector":"1"}},{"base_weights":[4.1210037E-3,-1.0175929E-1,2.5943485E-1,1.02770485E-1,1.1909251E-2,-1.01758145E-1,5.184145E-1,1.027509E-1,9.588655E-2,-1.0153421E-1,1.006158E-1],"categories":[],"categories_nodes":[],"categories_segments":[],"categories_sizes":[],"default_left":[0,0,0,0,0,0,0,0,0,0,0],"id":40,"left_children":[1,-1,3,-1,5,-1,7,-1,9,-1,-1],"loss_changes":[5.749958E2,0E0,3.3535507E2,0E0,6.9656085E2,0E0,1.924904E2,0E0,4.9702905E2,0E0,0E0],"parents":[2147483647,0,0,2,2,4,4,6,6,8,8],"right_children":[2,-1,4,-1,6,-1,8,-1,10,-1,-1],"split_conditions":[-3.0101708E-1,-1.0175929E-1,-2.7469975E-1,1.02770485E-1,-2.027657E-1,-1.01758145E-1,6.7425564E-2,1.027509E-1,2.6517875E0,-1.0153421E-1,1.006158E-1],"split_indices":[4,0,4,0,4,0,4,0,4,0,0],"split_type":[0,0,0,0,0,0,0,0,0,0,0],"sum_hessian":[2.2022385E3,4.3969263E2,1.7625459E3,4.2872314E2,1.3338228E3,4.3950452E2,8.943183E2,4.0495966E2,4.8935864E2,2.203038E2,2.6905487E2],"tree_param":{"num_deleted":"0","num_feature":"385","num_nodes":"11","size_leaf_vector":"1"}},{"base_weights":[2.4552352E-3,-1.0154581E-1,2.601345E-1,1.0244461E-1,1.9914601E-2,-1.0154241E-1,5.2526754E-1,1.0243622E-1,1.0938648E-1,-1.0129143E-1,1.00490235E-1],"categories":[],"categories_nodes":[],"categories_segments":[],"categories_sizes":[],"default_left":[0,0,0,0,0,0,0,0,0,0,0],"id":41,"left_children":[1,-1,3,-1,5,-1,7,-1,9,-1,-1],"loss_changes":[5.248546E2,0E0,2.931533E2,0E0,6.367341E2,0E0,1.6962863E2,0E0,4.5046463E2,0E0,0E0],"parents":[2147483647,0,0,2,2,4,4,6,6,8,8],"right_children":[2,-1,4,-1,6,-1,8,-1,10,-1,-1],"split_conditions":[-3.0101708E-1,-1.0154581E-1,-2.7469975E-1,1.0244461E-1,-2.027657E-1,-1.0154241E-1,6.7425564E-2,1.0243622E-1,2.6517875E0,-1.0129143E-1,1.00490235E-1],"split_indices":[4,0,4,0,4,0,4,0,4,0,0],"split_type":[0,0,0,0,0,0,0,0,0,0,0],"sum_hessian":[1.9990009E3,4.0321912E2,1.5957817E3,3.8082858E2,1.2149531E3,3.9817838E2,8.1677484E2,3.7058105E2,4.4619376E2,1.9796457E2,2.4822919E2],"tree_param":{"num_deleted":"0","num_feature":"385","num_nodes":"11","size_leaf_vector":"1"}},{"base_weights":[2.3161531E-3,-1.01345055E-1,2.5840044E-1,1.0215634E-1,1.6258413E-2,-1.0134357E-1,5.2230036E-1,1.02141075E-1,1.08705424E-1,-1.0106494E-1,1.0036184E-1],"categories":[],"categories_nodes":[],"categories_segments":[],"categories_sizes":[],"default_left":[0,0,0,0,0,0,0,0,0,0,0],"id":42,"left_children":[1,-1,3,-1,5,-1,7,-1,9,-1,-1],"loss_changes":[4.7104324E2,0E0,2.6723904E2,0E0,5.731347E2,0E0,1.5212343E2,0E0,4.0611142E2,0E0,0E0],"parents":[2147483647,0,0,2,2,4,4,6,6,8,8],"right_children":[2,-1,4,-1,6,-1,8,-1,10,-1,-1],"split_conditions":[-3.0101708E-1,-1.01345055E-1,-2.7469975E-1,1.0215634E-1,-2.027657E-1,-1.0134357E-1,6.7425564E-2,1.02141075E-1,2.6517875E0,-1.0106494E-1,1.0036184E-1],"split_indices":[4,0,4,0,4,0,4,0,4,0,0],"split_type":[0,0,0,0,0,0,0,0,0,0,0],"sum_hessian":[1.8088489E3,3.6361212E2,1.4452368E3,3.4733057E2,1.0979062E3,3.614418E2,7.364644E2,3.3306494E2,4.0339948E2,1.7916766E2,2.2423181E2],"tree_param":{"num_deleted":"0","num_feature":"385","num_nodes":"11","size_leaf_vector":"1"}},{"base_weights":[3.8627991E-3,-1.01159506E-1,2.584379E-1,1.0189044E-1,1.5393548E-2,-1.0115899E-1,5.1984334E-1,1.01874664E-1,1.0276872E-1,-1.0085435E-1,1.00235045E-1],"categories":[],"categories_nodes":[],"categories_segments":[],"categories_sizes":[],"default_left":[0,0,0,0,0,0,0,0,0,0,0],"id":43,"left_children":[1,-1,3,-1,5,-1,7,-1,9,-1,-1],"loss_changes":[4.2515503E2,0E0,2.4302449E2,0E0,5.1729205E2,0E0,1.3922284E2,0E0,3.6672125E2,0E0,0E0],"parents":[2147483647,0,0,2,2,4,4,6,6,8,8],"right_children":[2,-1,4,-1,6,-1,8,-1,10,-1,-1],"split_conditions":[-3.0101708E-1,-1.01159506E-1,-2.7469975E-1,1.0189044E-1,-2.027657E-1,-1.0115899E-1,6.7425564E-2,1.01874664E-1,2.6517875E0,-1.0085435E-1,1.00235045E-1],"split_indices":[4,0,4,0,4,0,4,0,4,0,0],"split_type":[0,0,0,0,0,0,0,0,0,0,0],"sum_hessian":[1.6426237E3,3.2866397E2,1.3139597E3,3.1746005E2,9.9649963E2,3.27913E2,6.685866E2,3.037724E2,3.648142E2,1.6314696E2,2.0166725E2],"tree_param":{"num_deleted":"0","num_feature":"385","num_nodes":"11","size_leaf_vector":"1"}},{"base_weights":[3.54565E-3,-1.368461E-1,1.00114025E-1,-1.5313084E-1,-1.0155934E-1,-1.2187774E-1,-1.8264602E-1,2.8809829E-2,-1.17423385E-1,-1.5994804E-1,-6.692998E-2,-2.0081249E-1,-9.316686E-2,3.237148E-1,-3.5806436E-3,2.6483992E-1,-1.2155074E-1,5.483662E-2,-1.7624043E-1,1.4295362E-1,-7.4741475E-2,-2.187215E-1,-8.783838E-2,-2.194118E-2,-2.3892345E-1,4.3228026E-2,1.4248623E-1,1.8207034E-1,-6.603097E-2,-8.957502E-3,4.3578286E-2,2.7491227E-1,-1.2550166E-1,-1.9261831E-1,1.4417319E-1,9.457908E-3,-1.9623499E-1,2.7070406E-1,-1.4365434E-2,2.5798125E-2,-7.890818E-2,1.4929897E-1,-2.2241713E-1,-1.9948071E-1,-3.1696573E-2,-4.975454E-2,2.5497994E-1,-2.678287E-1,1.713678E-2,2.6018295E-2,-4.572675E-3,3.837303E-1,-3.730753E-2,-2.911067E-1,7.173418E-2,3.4854632E-2,6.150507E-3,2.5991973E-1,-1.294496E-1,-2.6243865E-2,1.2228737E-3,-3.6031243E-3,2.5180427E-2,-2.2551378E-2,8.378375E-3,2.2160191E-2,-2.0195631E-2,6.4423284E-3,4.427929E-2,2.380979E-2,-8.342325E-3,-4.9375244E-3,2.5230676E-2,1.6648337E-2,-2.2596402E-2,-2.6039628E-2,1.4294133E-2,9.674876E-3,-8.483724E-3,1.8356489E-2,-8.830911E-3,3.2849252E-2,2.2398985E-3,-1.8022656E-2,-4.094278E-2,1.6011367E-2,4.7770783E-2,-1.5449907E-2,2.7712805E-2,5.673637E-3,-4.614845E-2,1.2701086E-2,-3.15071E-2,3.399999E-2,1.0015465E-3,-1.789895E-2,-9.817186E-3],"categories":[],"categories_nodes":[],"categories_segments":[],"categories_sizes":[],"default_left":[0,0,0,0,0,0,0,0,0,0,0,0,0,0,0,0,0,0,0,0,0,0,0,0,0,0,0,0,0,0,0,0,0,0,0,0,0,0,0,0,0,0,0,0,0,0,0,0,0,0,0,0,0,0,0,0,0,0,0,0,0,0,0,0,0,0,0,0,0,0,0,0,0,0,0,0,0,0,0,0,0,0,0,0,0,0,0,0,0,0,0,0,0,0,0,0,0],"id":44,"left_children":[1,3,-1,5,7,9,11,13,15,17,19,21,23,25,27,29,31,33,35,37,39,41,43,45,47,-1,49,51,53,-1,-1,55,57,59,61,63,65,67,-1,-1,69,71,73,75,77,79,81,83,-1,-1,-1,85,87,89,91,-1,-1,93,95,-1,-1,-1,-1,-1,-1,-1,-1,-1,-1,-1,-1,-1,-1,-1,-1,-1,-1,-1,-1,-1,-1,-1,-1,-1,-1,-1,-1,-1,-1,-1,-1,-1,-1,-1,-1,-1,-1],"loss_changes":[2.084208E2,7.3410606E-1,0E0,7.993221E-1,8.6150503E-1,9.00517E-1,7.2262764E-1,4.387887E-1,6.1611366E-1,9.075942E-1,3.0579734E-1,7.4604416E-1,8.1315273E-1,2.78292E-2,5.0209916E-1,2.9760686E-1,6.091075E-1,4.445834E-1,8.883028E-1,2.8794798E-1,2.618593E-1,4.7632313E-1,3.285351E-1,4.290279E-1,3.515855E-1,0E0,8.265902E-2,4.967968E-1,1.0244101E0,0E0,0E0,4.0366054E-2,5.873642E-1,8.086313E-2,2.8885704E-1,4.408598E-1,5.6012344E-1,1.5080419E-1,0E0,0E0,2.6720643E-1,9.099266E-2,4.8311615E-1,4.0616226E-1,2.5896648E-1,4.656142E-1,7.978812E-2,2.2973895E-1,0E0,0E0,0E0,4.4791996E-2,2.6888376E-1,7.6615036E-1,4.8641935E-1,0E0,0E0,7.708761E-2,5.4160786E-1,0E0,0E0,0E0,0E0,0E0,0E0,0E0,0E0,0E0,0E0,0E0,0E0,0E0,0E0,0E0,0E0,0E0,0E0,0E0,0E0,0E0,0E0,0E0,0E0,0E0,0E0,0E0,0E0,0E0,0E0,0E0,0E0,0E0,0E0,0E0,0E0,0E0,0E0],"parents":[2147483647,0,0,1,1,3,3,4,4,5,5,6,6,7,7,8,8,9,9,10,10,11,11,12,12,13,13,14,14,15,15,16,16,17,17,18,18,19,19,20,20,21,21,22,22,23,23,24,24,26,26,27,27,28,28,31,31,32,32,33,33,34,34,35,35,36,36,37,37,40,40,41,41,42,42,43,43,44,44,45,45,46,46,47,47,51,51,52,52,53,53,54,54,57,57,58,58],"right_children":[2,4,-1,6,8,10,12,14,16,18,20,22,24,26,28,30,32,34,36,38,40,42,44,46,48,-1,50,52,54,-1,-1,56,58,60,62,64,66,68,-1,-1,70,72,74,76,78,80,82,84,-1,-1,-1,86,88,90,92,-1,-1,94,96,-1,-1,-1,-1,-1,-1,-1,-1,-1,-1,-1,-1,-1,-1,-1,-1,-1,-1,-1,-1,-1,-1,-1,-1,-1,-1,-1,-1,-1,-1,-1,-1,-1,-1,-1,-1,-1,-1],"split_conditions":[4.352603E0,-1.2236484E-1,1.00114025E-1,-2.6483336E-1,-3.8955247E-1,7.751039E-1,1.1732919E0,-1.1537765E-1,2.00001E0,-1.0288737E0,8.017237E-1,1.3773122E0,-4.6200478E-1,2.00001E0,2.00001E0,-1.4199896E-1,2.00001E0,-6.5054595E-1,-1.374781E0,-3.376235E-1,2.00001E0,2.00001E0,1.7037189E-1,-5.577644E-1,1.3986672E0,4.3228026E-2,-1.20821185E-1,8.143239E-1,9.058897E-1,-8.957502E-3,4.3578286E-2,-7.5723836E-4,2.00001E0,-3.1239256E-1,-2.3606502E-1,-8.077106E-1,2.00001E0,-3.6323977E-1,-1.4365434E-2,2.5798125E-2,2.00001E0,-8.275688E-1,2.00001E0,1.713786E0,-1.0557265E0,1.2273349E0,-5.0254536E-1,3.446126E-1,1.713678E-2,2.6018295E-2,-4.572675E-3,5.623849E-1,1.6747624E0,2.00001E0,1.6342218E0,3.4854632E-2,6.150507E-3,-1.0645546E0,-3.4971893E-1,-2.6243865E-2,1.2228737E-3,-3.6031243E-3,2.5180427E-2,-2.2551378E-2,8.378375E-3,2.2160191E-2,-2.0195631E-2,6.4423284E-3,4.427929E-2,2.380979E-2,-8.342325E-3,-4.9375244E-3,2.5230676E-2,1.6648337E-2,-2.2596402E-2,-2.6039628E-2,1.4294133E-2,9.674876E-3,-8.483724E-3,1.8356489E-2,-8.830911E-3,3.2849252E-2,2.2398985E-3,-1.8022656E-2,-4.094278E-2,1.6011367E-2,4.7770783E-2,-1.5449907E-2,2.7712805E-2,5.673637E-3,-4.614845E-2,1.2701086E-2,-3.15071E-2,3.399999E-2,1.0015465E-3,-1.789895E-2,-9.817186E-3],"split_indices":[10,9,0,8,8,7,3,9,103,6,7,0,6,18,14,8,359,0,0,8,325,76,7,6,6,0,9,6,6,0,0,9,337,8,9,3,61,8,0,0,288,6,208,8,3,3,6,6,0,0,0,3,6,15,6,0,0,7,3,0,0,0,0,0,0,0,0,0,0,0,0,0,0,0,0,0,0,0,0,0,0,0,0,0,0,0,0,0,0,0,0,0,0,0,0,0,0],"split_type":[0,0,0,0,0,0,0,0,0,0,0,0,0,0,0,0,0,0,0,0,0,0,0,0,0,0,0,0,0,0,0,0,0,0,0,0,0,0,0,0,0,0,0,0,0,0,0,0,0,0,0,0,0,0,0,0,0,0,0,0,0,0,0,0,0,0,0,0,0,0,0,0,0,0,0,0,0,0,0,0,0,0,0,0,0,0,0,0,0,0,0,0,0,0,0,0,0],"sum_hessian":[1.4861674E3,1.3035774E3,1.8258998E2,8.896613E2,4.1391608E2,4.3460013E2,4.5506122E2,4.4814964E1,3.691011E2,2.555988E2,1.7900133E2,3.7723E2,7.783121E1,3.5449731E0,4.126999E1,3.2679343E0,3.658332E2,1.7854536E1,2.3774426E2,5.802266E0,1.7319907E2,3.248049E2,5.24251E1,5.305553E1,2.477568E1,1.3506101E0,2.194363E0,9.906052E0,3.136394E1,1.2182138E0,2.0497208E0,2.9330096E0,3.6290018E2,4.429391E0,1.3425145E1,2.3161366E1,2.1458289E2,4.051757E0,1.7505093E0,1.3887519E0,1.7181032E2,2.8375275E0,3.2196738E2,1.668752E1,3.573758E1,4.895857E1,4.096964E0,2.3469467E1,1.3062136E0,1.1148311E0,1.0795319E0,4.7711062E0,5.1349454E0,1.1485796E1,1.9878143E1,1.7098112E0,1.2231984E0,3.022157E0,3.5987802E2,3.093764E0,1.3356267E0,5.2688513E0,8.156294E0,5.076989E0,1.8084377E1,2.3888547E0,2.1219403E2,2.4678888E0,1.5838681E0,1.6862055E0,1.7012411E2,1.1466378E0,1.6908898E0,2.4947267E0,3.1947266E2,1.4370592E1,2.316927E0,1.0218358E1,2.5519222E1,6.409461E0,4.2549107E1,2.7996805E0,1.2972834E0,1.5903409E1,7.566057E0,2.2118418E0,2.5592644E0,4.1112943E0,1.0236511E0,3.995528E0,7.4902678E0,1.7980297E1,1.8978462E0,2.0157142E0,1.0064427E0,1.3745091E2,2.224271E2],"tree_param":{"num_deleted":"0","num_feature":"385","num_nodes":"97","size_leaf_vector":"1"}},{"base_weights":[5.408093E-3,-1.2471895E-1,1.00005805E-1,1.6385631E-1,-1.2691426E-1,-4.5265954E-2,2.6983368E-1,1.2297765E-1,-1.2869677E-1,2.4244068E-2,-3.403208E-2,-7.2583905E-3,4.1386032E-1,2.4974635E-1,-6.378482E-2,1.1023138E-1,-1.3041957E-1,4.864289E-2,9.158432E-3,6.630207E-3,3.7246503E-2,-3.6451887E-2,1.2113143E-1,1.9145235E-1,-2.0738432E-2,-4.1568235E-1,-1.2888306E-1,2.346117E-3,-1.3561063E-3,-5.653706E-3,2.7350912E-2,2.73087E-1,6.1705587E-3,-1.4282337E-1,-6.744057E-2,-4.140498E-1,-1.2736319E-1,3.660488E-2,1.300762E-2,1.9156976E-2,-1.6683668E-2,1.4452537E-2,-4.4087738E-2,-3.0349463E-3,-5.1814772E-2,-4.1731555E-2,-1.2589655E-2],"categories":[],"categories_nodes":[],"categories_segments":[],"categories_sizes":[],"default_left":[0,0,0,0,0,0,0,0,0,0,0,0,0,0,0,0,0,0,0,0,0,0,0,0,0,0,0,0,0,0,0,0,0,0,0,0,0,0,0,0,0,0,0,0,0,0,0],"id":45,"left_children":[1,3,-1,5,7,9,11,13,15,-1,-1,-1,17,19,21,23,25,-1,-1,27,-1,-1,29,31,-1,33,35,-1,-1,-1,-1,37,39,41,-1,43,45,-1,-1,-1,-1,-1,-1,-1,-1,-1,-1],"loss_changes":[1.8968024E2,8.418236E-1,0E0,2.3873836E-1,5.889931E-1,4.4702455E-1,3.7166756E-1,2.4380693E-1,5.404892E-1,0E0,0E0,0E0,7.297951E-2,1.7465365E-1,3.04867E-1,2.8973028E-1,5.028324E-1,0E0,0E0,1.3409383E-3,0E0,0E0,1.1437854E-1,1.2292227E-1,0E0,3.5206783E-1,4.9515152E-1,0E0,0E0,0E0,0E0,2.8105348E-2,1.4559573E-1,4.3713298E-1,0E0,2.3421013E-1,4.827919E-1,0E0,0E0,0E0,0E0,0E0,0E0,0E0,0E0,0E0,0E0],"parents":[2147483647,0,0,1,1,3,3,4,4,5,5,6,6,7,7,8,8,12,12,13,13,14,14,15,15,16,16,19,19,22,22,23,23,25,25,26,26,31,31,32,32,33,33,35,35,36,36],"right_children":[2,4,-1,6,8,10,12,14,16,-1,-1,-1,18,20,22,24,26,-1,-1,28,-1,-1,30,32,-1,34,36,-1,-1,-1,-1,38,40,42,-1,44,46,-1,-1,-1,-1,-1,-1,-1,-1,-1,-1],"split_conditions":[4.352603E0,2.00001E0,1.00005805E-1,-1.0589578E-2,2.00001E0,-1.1111165E0,2.00001E0,-6.219097E-2,2.00001E0,2.4244068E-2,-3.403208E-2,-7.2583905E-3,9.349746E-1,-8.1428826E-1,7.332428E-1,8.644439E-1,2.00001E0,4.864289E-2,9.158432E-3,-2.0315082E-1,3.7246503E-2,-3.6451887E-2,-1.096483E-1,-1.6044022E-1,-2.0738432E-2,-2.605234E-1,2.00001E0,2.346117E-3,-1.3561063E-3,-5.653706E-3,2.7350912E-2,-9.366089E-1,-3.0946156E-1,-2.1600492E-1,-6.744057E-2,2.00001E0,2.00001E0,3.660488E-2,1.300762E-2,1.9156976E-2,-1.6683668E-2,1.4452537E-2,-4.4087738E-2,-3.0349463E-3,-5.1814772E-2,-4.1731555E-2,-1.2589655E-2],"split_indices":[10,229,0,3,106,3,12,6,85,0,0,0,3,6,6,3,344,0,0,9,0,0,9,9,0,8,43,0,0,0,0,6,8,0,0,18,245,0,0,0,0,0,0,0,0,0,0],"split_type":[0,0,0,0,0,0,0,0,0,0,0,0,0,0,0,0,0,0,0,0,0,0,0,0,0,0,0,0,0,0,0,0,0,0,0,0,0,0,0,0,0,0,0,0,0,0,0],"sum_hessian":[1.463531E3,1.2949865E3,1.6854454E2,9.221179E0,1.2857653E3,3.2940304E0,5.927149E0,8.624953E0,1.2771404E3,1.7580671E0,1.5359633E0,1.9017801E0,4.0253687E0,4.936778E0,3.6881754E0,8.692039E0,1.2684484E3,2.869805E0,1.1555636E0,2.0096056E0,2.9271722E0,1.0344913E0,2.6536841E0,7.238279E0,1.4537593E0,5.351567E0,1.2630968E3,1.0076807E0,1.001925E0,1.5155544E0,1.1381298E0,4.6955376E0,2.5427415E0,3.36001E0,1.9915566E0,5.2574043E0,1.2578394E3,1.9005363E0,2.7950013E0,1.1756212E0,1.3671204E0,1.9729888E0,1.3870212E0,1.39757E0,3.8598344E0,4.903423E0,1.2529359E3],"tree_param":{"num_deleted":"0","num_feature":"385","num_nodes":"47","size_leaf_vector":"1"}},{"base_weights":[6.2568937E-3,-1.00942194E-1,2.6096782E-1,1.0170807E-1,-3.4379368E-3,-1.0093901E-1,5.03378E-1,1.0168258E-1,1.7031724E-2,-1.0059746E-1,9.987728E-2],"categories":[],"categories_nodes":[],"categories_segments":[],"categories_sizes":[],"default_left":[0,0,0,0,0,0,0,0,0,0,0],"id":46,"left_children":[1,-1,3,-1,5,-1,7,-1,9,-1,-1],"loss_changes":[3.7558316E2,0E0,2.3204826E2,0E0,4.3945355E2,0E0,1.4311435E2,0E0,2.9766052E2,0E0,0E0],"parents":[2147483647,0,0,2,2,4,4,6,6,8,8],"right_children":[2,-1,4,-1,6,-1,8,-1,10,-1,-1],"split_conditions":[-3.0101708E-1,-1.00942194E-1,-2.7469975E-1,1.0170807E-1,-2.027657E-1,-1.0093901E-1,6.7425564E-2,1.0168258E-1,2.6517875E0,-1.0059746E-1,9.987728E-2],"split_indices":[4,0,4,0,4,0,4,0,4,0,0],"split_type":[0,0,0,0,0,0,0,0,0,0,0],"sum_hessian":[1.4497661E3,2.9008148E2,1.1596847E3,2.9972467E2,8.5995996E2,2.877763E2,5.7218365E2,2.778061E2,2.9437756E2,1.4414699E2,1.5023058E2],"tree_param":{"num_deleted":"0","num_feature":"385","num_nodes":"11","size_leaf_vector":"1"}},{"base_weights":[4.6482934E-3,-1.0078297E-1,2.5907508E-1,1.0147166E-1,-2.047387E-3,-1.00780025E-1,5.048949E-1,1.0144725E-1,2.164465E-2,-1.0040057E-1,9.9761985E-2],"categories":[],"categories_nodes":[],"categories_segments":[],"categories_sizes":[],"default_left":[0,0,0,0,0,0,0,0,0,0,0],"id":47,"left_children":[1,-1,3,-1,5,-1,7,-1,9,-1,-1],"loss_changes":[3.3866956E2,0E0,2.0731358E2,0E0,3.9913297E2,0E0,1.281498E2,0E0,2.6943857E2,0E0,0E0],"parents":[2147483647,0,0,2,2,4,4,6,6,8,8],"right_children":[2,-1,4,-1,6,-1,8,-1,10,-1,-1],"split_conditions":[-3.0101708E-1,-1.0078297E-1,-2.7469975E-1,1.0147166E-1,-2.027657E-1,-1.00780025E-1,6.7425564E-2,1.0144725E-1,2.6517875E0,-1.0040057E-1,9.9761985E-2],"split_indices":[4,0,4,0,4,0,4,0,4,0,0],"split_type":[0,0,0,0,0,0,0,0,0,0,0],"sum_hessian":[1.3126897E3,2.6302686E2,1.0496628E3,2.6883026E2,7.808325E2,2.6134558E2,5.1948694E2,2.5232068E2,2.6716626E2,1.3025394E2,1.3691232E2],"tree_param":{"num_deleted":"0","num_feature":"385","num_nodes":"11","size_leaf_vector":"1"}},{"base_weights":[5.3748484E-3,2.0835824E-1,3.7331383E-3,-3.3773825E-2,2.8603566E-1,-2.9207844E-2,1.2510984E-2,1.635216E-2,-2.0060899E-2,3.5378437E-2,-2.09185E-3,-1.2989882E-2,-1.1716763E-1,-2.811248E-1,1.4018665E-2,-1.8345796E-2,2.4421188E-1,-6.2355716E-3,-2.4710603E-1,3.9313454E-3,-3.829184E-2,-2.418418E-1,1.5448697E-2,-6.6027227E-3,-1.3989107E-1,5.309859E-3,3.8225055E-2,-1.3148502E-1,1.1087649E-1,-4.410083E-2,-3.2376522E-1,-3.8617294E-2,-4.69613E-2,-2.5861603E-1,1.6852193E-2,-2.5382455E-2,1.24600634E-1,-8.622674E-2,-4.3453533E-2,-2.2558994E-3,-4.2265445E-2,2.5944978E-1,-6.277884E-2,-2.120739E-1,1.7537922E-1,-8.500012E-3,-3.501207E-1,8.486776E-3,-1.3908899E-2,-4.1658223E-2,1.2386777E-2,2.1994959E-1,1.50935715E-2,-4.023727E-3,1.4352486E-2,-1.0878175E-2,1.6259978E-2,-1.8886236E-2,1.1741912E-2,-2.095048E-2,9.041012E-3,2.8878234E-3,4.4775553E-2,-2.72338E-2,8.198007E-3,-3.6134407E-2,3.199307E-3,7.774507E-4,2.6232561E-2,-2.1457685E-2,-4.787271E-2,-1.0656065E-2,2.8507633E-2,3.1668139E-3,-8.8711566E-4],"categories":[],"categories_nodes":[],"categories_segments":[],"categories_sizes":[],"default_left":[0,0,0,0,0,0,0,0,0,0,0,0,0,0,0,0,0,0,0,0,0,0,0,0,0,0,0,0,0,0,0,0,0,0,0,0,0,0,0,0,0,0,0,0,0,0,0,0,0,0,0,0,0,0,0,0,0,0,0,0,0,0,0,0,0,0,0,0,0,0,0,0,0,0,0],"id":48,"left_children":[1,3,5,7,9,11,13,-1,-1,-1,-1,15,17,19,21,23,25,27,29,-1,-1,31,33,35,37,-1,-1,39,41,43,45,-1,47,49,51,53,55,57,-1,59,-1,61,63,65,67,-1,69,-1,-1,-1,-1,71,73,-1,-1,-1,-1,-1,-1,-1,-1,-1,-1,-1,-1,-1,-1,-1,-1,-1,-1,-1,-1,-1,-1],"loss_changes":[3.9513457E-1,1.8859524E-1,3.4143525E-1,1.3830347E-1,1.5938693E-1,3.5294807E-1,4.1657782E-1,0E0,0E0,0E0,0E0,2.9504156E-1,5.542518E-1,1.7191002E-1,3.4337723E-1,2.9532057E-1,9.505543E-2,3.3473182E-1,2.616713E-1,0E0,0E0,1.2867182E-1,3.5979068E-1,4.720969E-1,2.5088498E-1,0E0,0E0,4.1310883E-1,3.213042E-1,2.5906625E-1,5.024457E-2,0E0,5.260243E-2,3.397498E-1,3.2537615E-1,4.2558974E-1,2.3052138E-1,3.7069175E-1,0E0,1.8462096E-1,0E0,2.7215102E-1,2.121087E-1,1.5225297E-1,4.395829E-2,0E0,9.12801E-2,0E0,0E0,0E0,0E0,1.9680649E-1,3.6310717E-1,0E0,0E0,0E0,0E0,0E0,0E0,0E0,0E0,0E0,0E0,0E0,0E0,0E0,0E0,0E0,0E0,0E0,0E0,0E0,0E0,0E0,0E0],"parents":[2147483647,0,0,1,1,2,2,3,3,4,4,5,5,6,6,11,11,12,12,13,13,14,14,15,15,16,16,17,17,18,18,21,21,22,22,23,23,24,24,27,27,28,28,29,29,30,30,32,32,33,33,34,34,35,35,36,36,37,37,39,39,41,41,42,42,43,43,44,44,46,46,51,51,52,52],"right_children":[2,4,6,8,10,12,14,-1,-1,-1,-1,16,18,20,22,24,26,28,30,-1,-1,32,34,36,38,-1,-1,40,42,44,46,-1,48,50,52,54,56,58,-1,60,-1,62,64,66,68,-1,70,-1,-1,-1,-1,72,74,-1,-1,-1,-1,-1,-1,-1,-1,-1,-1,-1,-1,-1,-1,-1,-1,-1,-1,-1,-1,-1,-1],"split_conditions":[2.00001E0,-6.4401895E-1,-9.866506E-1,-1.4351052E0,6.530772E-1,-1.1111165E0,2.00001E0,1.635216E-2,-2.0060899E-2,3.5378437E-2,-2.09185E-3,1.6934866E0,2.00001E0,-4.163163E-1,2.00001E0,1.3809934E0,7.9792416E-1,1.4490949E-1,-8.8204485E-1,3.9313454E-3,-3.829184E-2,2.00001E0,2.00001E0,1.0407231E0,-1.1915076E0,5.309859E-3,3.8225055E-2,-4.3667492E-1,8.549633E-1,-1.0279237E0,-1.0966225E0,-3.8617294E-2,-4.62716E-1,1.0533735E0,2.00001E0,-1.1513121E0,-1.1651738E0,-1.3417827E0,-4.3453533E-2,-6.635899E-1,-4.2265445E-2,6.940872E-1,1.2554175E0,3.6338314E-1,-1.6138507E-1,-8.500012E-3,6.9529766E-1,8.486776E-3,-1.3908899E-2,-4.1658223E-2,1.2386777E-2,-1.0645546E0,3.6338314E-1,-4.023727E-3,1.4352486E-2,-1.0878175E-2,1.6259978E-2,-1.8886236E-2,1.1741912E-2,-2.095048E-2,9.041012E-3,2.8878234E-3,4.4775553E-2,-2.72338E-2,8.198007E-3,-3.6134407E-2,3.199307E-3,7.774507E-4,2.6232561E-2,-2.1457685E-2,-4.787271E-2,-1.0656065E-2,2.8507633E-2,3.1668139E-3,-8.8711566E-4],"split_indices":[124,3,3,3,0,3,215,0,0,0,0,7,12,3,95,7,0,7,5,0,0,12,380,7,3,0,0,7,7,3,3,0,7,6,48,3,6,3,0,5,0,7,7,0,9,0,5,0,0,0,0,7,0,0,0,0,0,0,0,0,0,0,0,0,0,0,0,0,0,0,0,0,0,0,0],"split_type":[0,0,0,0,0,0,0,0,0,0,0,0,0,0,0,0,0,0,0,0,0,0,0,0,0,0,0,0,0,0,0,0,0,0,0,0,0,0,0,0,0,0,0,0,0,0,0,0,0,0,0,0,0,0,0,0,0,0,0,0,0,0,0,0,0,0,0,0,0,0,0,0,0,0,0],"sum_hessian":[1.1870703E3,8.5136595E0,1.1785566E3,2.2051337E0,6.308526E0,2.4748439E2,9.3107227E2,1.0194348E0,1.1856987E0,5.042924E0,1.2656021E0,2.0992606E2,3.7558334E1,3.8088007E0,9.272635E2,2.065535E2,3.3725533E0,2.0826315E1,1.6732021E1,1.0662193E0,2.7425816E0,4.2193737E0,9.230441E2,1.89317E2,1.7236502E1,1.9950663E0,1.3774871E0,1.0004228E1,1.0822086E1,5.0182405E0,1.171378E1,1.8601401E0,2.3592339E0,3.7691333E0,9.1927496E2,1.6631773E2,2.2999271E1,1.5674339E1,1.5621619E0,7.626931E0,2.377297E0,5.5659814E0,5.2561045E0,2.861791E0,2.1564496E0,1.5844787E0,1.0129302E1,1.00292E0,1.3563138E0,2.6043742E0,1.1647592E0,6.8265786E0,9.124484E2,1.5357327E2,1.2744459E1,2.9595604E0,2.0039711E1,1.04701E1,5.2042394E0,1.9669534E0,5.659978E0,3.0206704E0,2.5453112E0,1.7873456E0,3.4687588E0,1.4775913E0,1.3841996E0,1.1086828E0,1.0477668E0,6.2308335E0,3.898468E0,1.0294198E0,5.797159E0,5.3920215E2,3.7324625E2],"tree_param":{"num_deleted":"0","num_feature":"385","num_nodes":"75","size_leaf_vector":"1"}},{"base_weights":[4.143985E-3,-1.0063074E-1,2.5769752E-1,1.0125287E-1,-3.28866E-3,-1.00628726E-1,5.024167E-1,1.0122698E-1,1.6179904E-2,-1.0021144E-1,9.963289E-2],"categories":[],"categories_nodes":[],"categories_segments":[],"categories_sizes":[],"default_left":[0,0,0,0,0,0,0,0,0,0,0],"id":49,"left_children":[1,-1,3,-1,5,-1,7,-1,9,-1,-1],"loss_changes":[3.0465552E2,0E0,1.8726634E2,0E0,3.5928635E2,0E0,1.1672802E2,0E0,2.4259032E2,0E0,0E0],"parents":[2147483647,0,0,2,2,4,4,6,6,8,8],"right_children":[2,-1,4,-1,6,-1,8,-1,10,-1,-1],"split_conditions":[-3.0101708E-1,-1.0063074E-1,-2.7469975E-1,1.0125287E-1,-2.027657E-1,-1.00628726E-1,6.7425564E-2,1.0122698E-1,2.6517875E0,-1.0021144E-1,9.963289E-2],"split_indices":[4,0,4,0,4,0,4,0,4,0,0],"split_type":[0,0,0,0,0,0,0,0,0,0,0],"sum_hessian":[1.1871033E3,2.3753189E2,9.4957135E2,2.4322627E2,7.063451E2,2.3642937E2,4.6991574E2,2.2885915E2,2.410566E2,1.1821671E2,1.2283988E2],"tree_param":{"num_deleted":"0","num_feature":"385","num_nodes":"11","size_leaf_vector":"1"}},{"base_weights":[2.9129372E-3,-1.0048667E-1,2.5694874E-1,1.0103873E-1,2.463163E-3,-1.00481965E-1,5.053287E-1,1.01021826E-1,2.5754476E-2,-1.0002255E-1,9.952241E-2],"categories":[],"categories_nodes":[],"categories_segments":[],"categories_sizes":[],"default_left":[0,0,0,0,0,0,0,0,0,0,0],"id":50,"left_children":[1,-1,3,-1,5,-1,7,-1,9,-1,-1],"loss_changes":[2.749802E2,0E0,1.6447897E2,0E0,3.258254E2,0E0,1.03861275E2,0E0,2.2088293E2,0E0,0E0],"parents":[2147483647,0,0,2,2,4,4,6,6,8,8],"right_children":[2,-1,4,-1,6,-1,8,-1,10,-1,-1],"split_conditions":[-3.0101708E-1,-1.0048667E-1,-2.7469975E-1,1.0103873E-1,-2.027657E-1,-1.00481965E-1,6.7425564E-2,1.01021826E-1,2.6517875E0,-1.0002255E-1,9.952241E-2],"split_indices":[4,0,4,0,4,0,4,0,4,0,0],"split_type":[0,0,0,0,0,0,0,0,0,0,0],"sum_hessian":[1.0720819E3,2.1524254E2,8.5683936E2,2.1558902E2,6.4125037E2,